FANN_FLO_2.1
num_layers=3
learning_rate=0.700000
connection_rate=1.000000
network_type=0
learning_momentum=0.000000
training_algorithm=2
train_error_function=1
train_stop_function=0
cascade_output_change_fraction=0.010000
quickprop_decay=-0.000100
quickprop_mu=1.750000
rprop_increase_factor=1.200000
rprop_decrease_factor=0.500000
rprop_delta_min=0.000000
rprop_delta_max=50.000000
rprop_delta_zero=0.100000
cascade_output_stagnation_epochs=12
cascade_candidate_change_fraction=0.010000
cascade_candidate_stagnation_epochs=12
cascade_max_out_epochs=150
cascade_max_cand_epochs=150
cascade_num_candidate_groups=2
bit_fail_limit=3.49999994039535522461e-01
cascade_candidate_limit=1.00000000000000000000e+03
cascade_weight_multiplier=4.00000005960464477539e-01
cascade_activation_functions_count=10
cascade_activation_functions=3 5 7 8 10 11 14 15 16 17 
cascade_activation_steepnesses_count=4
cascade_activation_steepnesses=2.50000000000000000000e-01 5.00000000000000000000e-01 7.50000000000000000000e-01 1.00000000000000000000e+00 
layer_sizes=163 101 2 
scale_included=0
neurons (num_inputs, activation_function, activation_steepness)=(0, 0, 0.00000000000000000000e+00) (0, 0, 0.00000000000000000000e+00) (0, 0, 0.00000000000000000000e+00) (0, 0, 0.00000000000000000000e+00) (0, 0, 0.00000000000000000000e+00) (0, 0, 0.00000000000000000000e+00) (0, 0, 0.00000000000000000000e+00) (0, 0, 0.00000000000000000000e+00) (0, 0, 0.00000000000000000000e+00) (0, 0, 0.00000000000000000000e+00) (0, 0, 0.00000000000000000000e+00) (0, 0, 0.00000000000000000000e+00) (0, 0, 0.00000000000000000000e+00) (0, 0, 0.00000000000000000000e+00) (0, 0, 0.00000000000000000000e+00) (0, 0, 0.00000000000000000000e+00) (0, 0, 0.00000000000000000000e+00) (0, 0, 0.00000000000000000000e+00) (0, 0, 0.00000000000000000000e+00) (0, 0, 0.00000000000000000000e+00) (0, 0, 0.00000000000000000000e+00) (0, 0, 0.00000000000000000000e+00) (0, 0, 0.00000000000000000000e+00) (0, 0, 0.00000000000000000000e+00) (0, 0, 0.00000000000000000000e+00) (0, 0, 0.00000000000000000000e+00) (0, 0, 0.00000000000000000000e+00) (0, 0, 0.00000000000000000000e+00) (0, 0, 0.00000000000000000000e+00) (0, 0, 0.00000000000000000000e+00) (0, 0, 0.00000000000000000000e+00) (0, 0, 0.00000000000000000000e+00) (0, 0, 0.00000000000000000000e+00) (0, 0, 0.00000000000000000000e+00) (0, 0, 0.00000000000000000000e+00) (0, 0, 0.00000000000000000000e+00) (0, 0, 0.00000000000000000000e+00) (0, 0, 0.00000000000000000000e+00) (0, 0, 0.00000000000000000000e+00) (0, 0, 0.00000000000000000000e+00) (0, 0, 0.00000000000000000000e+00) (0, 0, 0.00000000000000000000e+00) (0, 0, 0.00000000000000000000e+00) (0, 0, 0.00000000000000000000e+00) (0, 0, 0.00000000000000000000e+00) (0, 0, 0.00000000000000000000e+00) (0, 0, 0.00000000000000000000e+00) (0, 0, 0.00000000000000000000e+00) (0, 0, 0.00000000000000000000e+00) (0, 0, 0.00000000000000000000e+00) (0, 0, 0.00000000000000000000e+00) (0, 0, 0.00000000000000000000e+00) (0, 0, 0.00000000000000000000e+00) (0, 0, 0.00000000000000000000e+00) (0, 0, 0.00000000000000000000e+00) (0, 0, 0.00000000000000000000e+00) (0, 0, 0.00000000000000000000e+00) (0, 0, 0.00000000000000000000e+00) (0, 0, 0.00000000000000000000e+00) (0, 0, 0.00000000000000000000e+00) (0, 0, 0.00000000000000000000e+00) (0, 0, 0.00000000000000000000e+00) (0, 0, 0.00000000000000000000e+00) (0, 0, 0.00000000000000000000e+00) (0, 0, 0.00000000000000000000e+00) (0, 0, 0.00000000000000000000e+00) (0, 0, 0.00000000000000000000e+00) (0, 0, 0.00000000000000000000e+00) (0, 0, 0.00000000000000000000e+00) (0, 0, 0.00000000000000000000e+00) (0, 0, 0.00000000000000000000e+00) (0, 0, 0.00000000000000000000e+00) (0, 0, 0.00000000000000000000e+00) (0, 0, 0.00000000000000000000e+00) (0, 0, 0.00000000000000000000e+00) (0, 0, 0.00000000000000000000e+00) (0, 0, 0.00000000000000000000e+00) (0, 0, 0.00000000000000000000e+00) (0, 0, 0.00000000000000000000e+00) (0, 0, 0.00000000000000000000e+00) (0, 0, 0.00000000000000000000e+00) (0, 0, 0.00000000000000000000e+00) (0, 0, 0.00000000000000000000e+00) (0, 0, 0.00000000000000000000e+00) (0, 0, 0.00000000000000000000e+00) (0, 0, 0.00000000000000000000e+00) (0, 0, 0.00000000000000000000e+00) (0, 0, 0.00000000000000000000e+00) (0, 0, 0.00000000000000000000e+00) (0, 0, 0.00000000000000000000e+00) (0, 0, 0.00000000000000000000e+00) (0, 0, 0.00000000000000000000e+00) (0, 0, 0.00000000000000000000e+00) (0, 0, 0.00000000000000000000e+00) (0, 0, 0.00000000000000000000e+00) (0, 0, 0.00000000000000000000e+00) (0, 0, 0.00000000000000000000e+00) (0, 0, 0.00000000000000000000e+00) (0, 0, 0.00000000000000000000e+00) (0, 0, 0.00000000000000000000e+00) (0, 0, 0.00000000000000000000e+00) (0, 0, 0.00000000000000000000e+00) (0, 0, 0.00000000000000000000e+00) (0, 0, 0.00000000000000000000e+00) (0, 0, 0.00000000000000000000e+00) (0, 0, 0.00000000000000000000e+00) (0, 0, 0.00000000000000000000e+00) (0, 0, 0.00000000000000000000e+00) (0, 0, 0.00000000000000000000e+00) (0, 0, 0.00000000000000000000e+00) (0, 0, 0.00000000000000000000e+00) (0, 0, 0.00000000000000000000e+00) (0, 0, 0.00000000000000000000e+00) (0, 0, 0.00000000000000000000e+00) (0, 0, 0.00000000000000000000e+00) (0, 0, 0.00000000000000000000e+00) (0, 0, 0.00000000000000000000e+00) (0, 0, 0.00000000000000000000e+00) (0, 0, 0.00000000000000000000e+00) (0, 0, 0.00000000000000000000e+00) (0, 0, 0.00000000000000000000e+00) (0, 0, 0.00000000000000000000e+00) (0, 0, 0.00000000000000000000e+00) (0, 0, 0.00000000000000000000e+00) (0, 0, 0.00000000000000000000e+00) (0, 0, 0.00000000000000000000e+00) (0, 0, 0.00000000000000000000e+00) (0, 0, 0.00000000000000000000e+00) (0, 0, 0.00000000000000000000e+00) (0, 0, 0.00000000000000000000e+00) (0, 0, 0.00000000000000000000e+00) (0, 0, 0.00000000000000000000e+00) (0, 0, 0.00000000000000000000e+00) (0, 0, 0.00000000000000000000e+00) (0, 0, 0.00000000000000000000e+00) (0, 0, 0.00000000000000000000e+00) (0, 0, 0.00000000000000000000e+00) (0, 0, 0.00000000000000000000e+00) (0, 0, 0.00000000000000000000e+00) (0, 0, 0.00000000000000000000e+00) (0, 0, 0.00000000000000000000e+00) (0, 0, 0.00000000000000000000e+00) (0, 0, 0.00000000000000000000e+00) (0, 0, 0.00000000000000000000e+00) (0, 0, 0.00000000000000000000e+00) (0, 0, 0.00000000000000000000e+00) (0, 0, 0.00000000000000000000e+00) (0, 0, 0.00000000000000000000e+00) (0, 0, 0.00000000000000000000e+00) (0, 0, 0.00000000000000000000e+00) (0, 0, 0.00000000000000000000e+00) (0, 0, 0.00000000000000000000e+00) (0, 0, 0.00000000000000000000e+00) (0, 0, 0.00000000000000000000e+00) (0, 0, 0.00000000000000000000e+00) (0, 0, 0.00000000000000000000e+00) (0, 0, 0.00000000000000000000e+00) (0, 0, 0.00000000000000000000e+00) (0, 0, 0.00000000000000000000e+00) (0, 0, 0.00000000000000000000e+00) (0, 0, 0.00000000000000000000e+00) (0, 0, 0.00000000000000000000e+00) (0, 0, 0.00000000000000000000e+00) (163, 4, 5.00000000000000000000e-01) (163, 4, 5.00000000000000000000e-01) (163, 4, 5.00000000000000000000e-01) (163, 4, 5.00000000000000000000e-01) (163, 4, 5.00000000000000000000e-01) (163, 4, 5.00000000000000000000e-01) (163, 4, 5.00000000000000000000e-01) (163, 4, 5.00000000000000000000e-01) (163, 4, 5.00000000000000000000e-01) (163, 4, 5.00000000000000000000e-01) (163, 4, 5.00000000000000000000e-01) (163, 4, 5.00000000000000000000e-01) (163, 4, 5.00000000000000000000e-01) (163, 4, 5.00000000000000000000e-01) (163, 4, 5.00000000000000000000e-01) (163, 4, 5.00000000000000000000e-01) (163, 4, 5.00000000000000000000e-01) (163, 4, 5.00000000000000000000e-01) (163, 4, 5.00000000000000000000e-01) (163, 4, 5.00000000000000000000e-01) (163, 4, 5.00000000000000000000e-01) (163, 4, 5.00000000000000000000e-01) (163, 4, 5.00000000000000000000e-01) (163, 4, 5.00000000000000000000e-01) (163, 4, 5.00000000000000000000e-01) (163, 4, 5.00000000000000000000e-01) (163, 4, 5.00000000000000000000e-01) (163, 4, 5.00000000000000000000e-01) (163, 4, 5.00000000000000000000e-01) (163, 4, 5.00000000000000000000e-01) (163, 4, 5.00000000000000000000e-01) (163, 4, 5.00000000000000000000e-01) (163, 4, 5.00000000000000000000e-01) (163, 4, 5.00000000000000000000e-01) (163, 4, 5.00000000000000000000e-01) (163, 4, 5.00000000000000000000e-01) (163, 4, 5.00000000000000000000e-01) (163, 4, 5.00000000000000000000e-01) (163, 4, 5.00000000000000000000e-01) (163, 4, 5.00000000000000000000e-01) (163, 4, 5.00000000000000000000e-01) (163, 4, 5.00000000000000000000e-01) (163, 4, 5.00000000000000000000e-01) (163, 4, 5.00000000000000000000e-01) (163, 4, 5.00000000000000000000e-01) (163, 4, 5.00000000000000000000e-01) (163, 4, 5.00000000000000000000e-01) (163, 4, 5.00000000000000000000e-01) (163, 4, 5.00000000000000000000e-01) (163, 4, 5.00000000000000000000e-01) (163, 4, 5.00000000000000000000e-01) (163, 4, 5.00000000000000000000e-01) (163, 4, 5.00000000000000000000e-01) (163, 4, 5.00000000000000000000e-01) (163, 4, 5.00000000000000000000e-01) (163, 4, 5.00000000000000000000e-01) (163, 4, 5.00000000000000000000e-01) (163, 4, 5.00000000000000000000e-01) (163, 4, 5.00000000000000000000e-01) (163, 4, 5.00000000000000000000e-01) (163, 4, 5.00000000000000000000e-01) (163, 4, 5.00000000000000000000e-01) (163, 4, 5.00000000000000000000e-01) (163, 4, 5.00000000000000000000e-01) (163, 4, 5.00000000000000000000e-01) (163, 4, 5.00000000000000000000e-01) (163, 4, 5.00000000000000000000e-01) (163, 4, 5.00000000000000000000e-01) (163, 4, 5.00000000000000000000e-01) (163, 4, 5.00000000000000000000e-01) (163, 4, 5.00000000000000000000e-01) (163, 4, 5.00000000000000000000e-01) (163, 4, 5.00000000000000000000e-01) (163, 4, 5.00000000000000000000e-01) (163, 4, 5.00000000000000000000e-01) (163, 4, 5.00000000000000000000e-01) (163, 4, 5.00000000000000000000e-01) (163, 4, 5.00000000000000000000e-01) (163, 4, 5.00000000000000000000e-01) (163, 4, 5.00000000000000000000e-01) (163, 4, 5.00000000000000000000e-01) (163, 4, 5.00000000000000000000e-01) (163, 4, 5.00000000000000000000e-01) (163, 4, 5.00000000000000000000e-01) (163, 4, 5.00000000000000000000e-01) (163, 4, 5.00000000000000000000e-01) (163, 4, 5.00000000000000000000e-01) (163, 4, 5.00000000000000000000e-01) (163, 4, 5.00000000000000000000e-01) (163, 4, 5.00000000000000000000e-01) (163, 4, 5.00000000000000000000e-01) (163, 4, 5.00000000000000000000e-01) (163, 4, 5.00000000000000000000e-01) (163, 4, 5.00000000000000000000e-01) (163, 4, 5.00000000000000000000e-01) (163, 4, 5.00000000000000000000e-01) (163, 4, 5.00000000000000000000e-01) (163, 4, 5.00000000000000000000e-01) (163, 4, 5.00000000000000000000e-01) (163, 4, 5.00000000000000000000e-01) (0, 0, 0.00000000000000000000e+00) (101, 4, 5.00000000000000000000e-01) (0, 0, 0.00000000000000000000e+00) 
connections (connected_to_neuron, weight)=(0, -3.16375464200973510742e-01) (1, -6.87381982803344726562e-01) (2, -2.76142686605453491211e-01) (3, 2.90505409240722656250e+00) (4, -2.02507585287094116211e-01) (5, 2.77234172821044921875e+00) (6, -5.49791567027568817139e-02) (7, -8.21014404296875000000e-01) (8, -1.11018136143684387207e-01) (9, -8.66405665874481201172e-01) (10, -7.21927046775817871094e-01) (11, -7.49318957328796386719e-01) (12, -7.32588529586791992188e-01) (13, -4.75799143314361572266e-01) (14, -1.45854696631431579590e-01) (15, -1.84697017073631286621e-01) (16, 2.78325176239013671875e+00) (17, -4.17902290821075439453e-01) (18, -4.36765253543853759766e-01) (19, -4.81056511402130126953e-01) (20, -4.53908503055572509766e-01) (21, -4.13227856159210205078e-01) (22, -6.82205438613891601562e-01) (23, 2.62022113800048828125e+00) (24, -6.77338242530822753906e-01) (25, 2.19696593284606933594e+00) (26, 1.03913235664367675781e+00) (27, 2.75746536254882812500e+00) (28, 1.04453907012939453125e+01) (29, 2.82277607917785644531e+00) (30, 1.05398683547973632812e+01) (31, 1.05119953155517578125e+01) (32, 1.04858684539794921875e+01) (33, 1.04467058181762695312e+01) (34, 1.05070447921752929688e+01) (35, 1.04668340682983398438e+01) (36, 1.05090427398681640625e+01) (37, 1.04426612854003906250e+01) (38, 1.05132379531860351562e+01) (39, 1.55399489402770996094e+00) (40, 1.04436731338500976562e+01) (41, 1.42410373687744140625e+00) (42, 2.82366323471069335938e+00) (43, -3.96908283233642578125e-01) (44, 2.81529140472412109375e+00) (45, 2.74242115020751953125e+00) (46, 1.18260160088539123535e-01) (47, 1.07586359977722167969e+00) (48, 2.76591920852661132812e+00) (49, 2.77999782562255859375e+00) (50, 2.84888291358947753906e+00) (51, 9.14259254932403564453e-01) (52, -2.16439694166183471680e-01) (53, 2.20049548149108886719e+00) (54, -7.13794469833374023438e-01) (55, -2.26359754800796508789e-01) (56, -8.22764635086059570312e-01) (57, -8.46008062362670898438e-01) (58, 2.59374642372131347656e+00) (59, -3.66975486278533935547e-01) (60, -5.64130060374736785889e-02) (61, -2.26446747779846191406e-01) (62, -1.74675568938255310059e-01) (63, -4.23425257205963134766e-01) (64, 2.17075854539871215820e-01) (65, -4.21771466732025146484e-01) (66, -4.14654076099395751953e-01) (67, -2.62461692094802856445e-01) (68, -6.87912583351135253906e-01) (69, 2.60496282577514648438e+00) (70, 1.72097653150558471680e-01) (71, 1.00146508216857910156e+00) (72, -1.03985145688056945801e-01) (73, -3.47599238157272338867e-01) (74, -1.75032719969749450684e-01) (75, -6.75521135330200195312e-01) (76, -1.94843187928199768066e-01) (77, -1.83691486716270446777e-01) (78, 2.17281866073608398438e+00) (79, 3.02351742982864379883e-01) (80, 2.15330147743225097656e+00) (81, -8.32124829292297363281e-01) (82, 9.40380841493606567383e-02) (83, -1.41514047980308532715e-01) (84, -3.56032907962799072266e-01) (85, 1.71119004487991333008e-01) (86, -1.79250463843345642090e-01) (87, 2.58806014060974121094e+00) (88, -7.75949060916900634766e-02) (89, -1.69525608420372009277e-01) (90, 2.68504428863525390625e+00) (91, -3.06644827127456665039e-01) (92, -1.29925720393657684326e-02) (93, -2.66531169414520263672e-01) (94, 1.04963846206665039062e+01) (95, 1.54621624946594238281e+00) (96, -1.43748387694358825684e-01) (97, -3.78891080617904663086e-01) (98, -7.66523629426956176758e-02) (99, -3.57121020555496215820e-01) (100, 1.86435371637344360352e-01) (101, -8.31753969192504882812e-01) (102, 2.13287544250488281250e+00) (103, -2.76983410120010375977e-01) (104, -7.96373367309570312500e-01) (105, -4.43384110927581787109e-01) (106, -2.79442876577377319336e-01) (107, -1.25770166516304016113e-01) (108, 1.43737244606018066406e+00) (109, 1.26870408654212951660e-01) (110, -7.52898216247558593750e-01) (111, 1.05488948822021484375e+01) (112, 1.39368009567260742188e+00) (113, 1.44007420539855957031e+00) (114, 1.03979759216308593750e+01) (115, -1.88843458890914916992e-01) (116, -3.80597800016403198242e-01) (117, -4.47699487209320068359e-01) (118, 4.56968396902084350586e-01) (119, -4.60600368678569793701e-02) (120, 1.04303894042968750000e+01) (121, 2.80969500541687011719e+00) (122, 1.37930512428283691406e+00) (123, 1.04079923629760742188e+01) (124, 1.04096927642822265625e+01) (125, -2.58784741163253784180e-01) (126, -1.87881812453269958496e-01) (127, -8.36445212364196777344e-01) (128, -6.23111240565776824951e-02) (129, -3.98761808872222900391e-01) (130, 2.16623592376708984375e+00) (131, -3.72811071574687957764e-02) (132, -3.82749550044536590576e-02) (133, -2.36676648259162902832e-01) (134, -8.02464365959167480469e-01) (135, 2.09976887702941894531e+00) (136, -8.49081277847290039062e-01) (137, 9.65325891971588134766e-01) (138, 1.04812498092651367188e+01) (139, 1.45570921897888183594e+00) (140, 1.05615024566650390625e+01) (141, 1.36114478111267089844e+00) (142, 1.41154384613037109375e+00) (143, 1.03967475891113281250e+01) (144, 1.04774084091186523438e+01) (145, -3.24955433607101440430e-01) (146, 7.72206485271453857422e-03) (147, 2.67075252532958984375e+00) (148, 2.65830636024475097656e+00) (149, 2.27338933944702148438e+00) (150, -5.51085531711578369141e-01) (151, -7.55803823471069335938e-01) (152, 8.93511116504669189453e-01) (153, 1.04451961517333984375e+01) (154, 3.79203289747238159180e-01) (155, -4.02108728885650634766e-01) (156, -1.42640583217144012451e-02) (157, -7.38158345222473144531e-01) (158, -7.23136067390441894531e-01) (159, 2.68863654136657714844e+00) (160, -5.47517955303192138672e-01) (161, 1.04596805572509765625e+01) (162, -8.09489488601684570312e-01) (0, -6.88502788543701171875e-01) (1, -2.23132348060607910156e+00) (2, -6.84911251068115234375e-01) (3, -1.26635098457336425781e+00) (4, 3.68833541870117187500e-01) (5, -1.19657826423645019531e+00) (6, -1.15572607517242431641e+00) (7, -2.11571240425109863281e+00) (8, -1.12675595283508300781e+00) (9, -2.13174700736999511719e+00) (10, -2.06260371208190917969e+00) (11, -2.18074417114257812500e+00) (12, -2.04739832878112792969e+00) (13, -3.23513245582580566406e+00) (14, -1.12475168704986572266e+00) (15, -1.10299205780029296875e+00) (16, -2.31521677970886230469e+00) (17, -3.21599507331848144531e+00) (18, -3.15995478630065917969e+00) (19, -3.24923324584960937500e+00) (20, -3.11931896209716796875e+00) (21, -3.10781884193420410156e+00) (22, -2.09213352203369140625e+00) (23, -2.36037898063659667969e+00) (24, -2.10093474388122558594e+00) (25, -1.84017825126647949219e+00) (26, -1.58264768123626708984e+00) (27, -1.24002456665039062500e+00) (28, 1.05203485488891601562e+01) (29, -1.17575216293334960938e+00) (30, 1.04989156723022460938e+01) (31, 1.05185852050781250000e+01) (32, 1.05181827545166015625e+01) (33, 1.04217987060546875000e+01) (34, 1.05401849746704101562e+01) (35, 1.05494432449340820312e+01) (36, 1.05131721496582031250e+01) (37, 1.04499759674072265625e+01) (38, 1.04779777526855468750e+01) (39, -1.27452358603477478027e-01) (40, 1.05624752044677734375e+01) (41, -2.40818306803703308105e-01) (42, -1.24452114105224609375e+00) (43, -1.62510824203491210938e+00) (44, -1.18172240257263183594e+00) (45, -2.32391905784606933594e+00) (46, -7.96703338623046875000e-01) (47, -1.60804474353790283203e+00) (48, -1.12389612197875976562e+00) (49, -1.12326240539550781250e+00) (50, -1.24220299720764160156e+00) (51, -7.49443113803863525391e-01) (52, -2.71771281957626342773e-01) (53, -1.72368955612182617188e+00) (54, -2.05592012405395507812e+00) (55, -7.32811212539672851562e-01) (56, -2.16501188278198242188e+00) (57, -2.02087402343750000000e+00) (58, -9.57577347755432128906e-01) (59, -6.18527233600616455078e-01) (60, -1.04046642780303955078e+00) (61, -8.57972860336303710938e-01) (62, -1.05452287197113037109e+00) (63, -5.53823173046112060547e-01) (64, -1.12276947498321533203e+00) (65, -3.66316884756088256836e-01) (66, -2.79246687889099121094e+00) (67, -6.30178093910217285156e-01) (68, -2.10815715789794921875e+00) (69, -2.31663918495178222656e+00) (70, -2.45898634195327758789e-01) (71, -1.52272117137908935547e+00) (72, -1.00748014450073242188e+00) (73, -8.06820392608642578125e-01) (74, -1.11480188369750976562e+00) (75, -1.96945917606353759766e+00) (76, -7.01570153236389160156e-01) (77, -1.06495809555053710938e+00) (78, -1.81604933738708496094e+00) (79, 1.33845031261444091797e-01) (80, -1.83524870872497558594e+00) (81, -2.09299612045288085938e+00) (82, -6.56731426715850830078e-01) (83, -1.24754297733306884766e+00) (84, -3.12568736076354980469e+00) (85, -2.25299060344696044922e-01) (86, -1.17256033420562744141e+00) (87, -2.40082120895385742188e+00) (88, -6.55583143234252929688e-01) (89, -1.24965059757232666016e+00) (90, -2.39429712295532226562e+00) (91, -6.49639964103698730469e-01) (92, -1.22088515758514404297e+00) (93, 5.04494190216064453125e-01) (94, 1.04224424362182617188e+01) (95, -2.05244630575180053711e-01) (96, -1.14047634601593017578e+00) (97, -8.29744458198547363281e-01) (98, -1.18576550483703613281e+00) (99, 5.19758224487304687500e-01) (100, -1.52538931369781494141e+00) (101, -2.20695328712463378906e+00) (102, -1.83386111259460449219e+00) (103, -6.59178256988525390625e-01) (104, -2.20597958564758300781e+00) (105, -3.11533975601196289062e+00) (106, -8.52802276611328125000e-01) (107, -1.12102544307708740234e+00) (108, -2.26305812597274780273e-01) (109, -7.07108616828918457031e-01) (110, -2.22947692871093750000e+00) (111, 1.05604372024536132812e+01) (112, 5.07926940917968750000e-02) (113, -3.02793860435485839844e-01) (114, 1.05784101486206054688e+01) (115, 3.77375215291976928711e-01) (116, -6.25065207481384277344e-01) (117, -5.46745359897613525391e-01) (118, 9.88224893808364868164e-02) (119, -1.07073903083801269531e+00) (120, 1.04872322082519531250e+01) (121, -5.42969644069671630859e-01) (122, -1.54448673129081726074e-01) (123, 1.05318632125854492188e+01) (124, 1.04630031585693359375e+01) (125, -6.25480532646179199219e-01) (126, -1.14563345909118652344e+00) (127, -1.93874084949493408203e+00) (128, -1.22620892524719238281e+00) (129, -3.15411114692687988281e+00) (130, -1.82332777976989746094e+00) (131, -1.17774009704589843750e+00) (132, -1.10753357410430908203e+00) (133, -6.21879339218139648438e-01) (134, -2.08679986000061035156e+00) (135, -1.72530126571655273438e+00) (136, -2.09887218475341796875e+00) (137, -6.77596569061279296875e-01) (138, 1.05338010787963867188e+01) (139, -2.80930936336517333984e-01) (140, 1.05238819122314453125e+01) (141, -1.51868447661399841309e-01) (142, 1.53929024934768676758e-01) (143, 1.04145708084106445312e+01) (144, 1.05531568527221679688e+01) (145, -7.07562685012817382812e-01) (146, -1.12525844573974609375e+00) (147, -2.28634333610534667969e+00) (148, -2.37168741226196289062e+00) (149, -1.79208827018737792969e+00) (150, -1.65376949310302734375e+00) (151, -2.09259343147277832031e+00) (152, -8.36494028568267822266e-01) (153, 1.04835939407348632812e+01) (154, 1.54022663831710815430e-01) (155, -3.17237091064453125000e+00) (156, -1.19266879558563232422e+00) (157, -2.11285209655761718750e+00) (158, -2.03631186485290527344e+00) (159, -2.31701421737670898438e+00) (160, -2.76799488067626953125e+00) (161, 1.05097522735595703125e+01) (162, -2.12326049804687500000e+00) (0, -5.90087950229644775391e-01) (1, -2.51055676490068435669e-02) (2, -5.21721005439758300781e-01) (3, 2.71042346954345703125e+00) (4, -2.43377423286437988281e+00) (5, 2.77392339706420898438e+00) (6, 1.93459298461675643921e-02) (7, -5.32818287611007690430e-02) (8, -1.27073526382446289062e-01) (9, 9.30227041244506835938e-02) (10, -5.94561398029327392578e-02) (11, -1.05562418699264526367e-01) (12, -6.50454610586166381836e-02) (13, 3.78850996494293212891e-02) (14, -4.42492067813873291016e-02) (15, -1.81449621915817260742e-01) (16, 2.30339869856834411621e-01) (17, 1.38352409005165100098e-01) (18, 1.98019295930862426758e-01) (19, 1.11491173505783081055e-01) (20, 1.00335776805877685547e-01) (21, 2.40830611437559127808e-02) (22, 1.37477532029151916504e-01) (23, 2.73267477750778198242e-01) (24, 9.69305932521820068359e-02) (25, 2.03845173120498657227e-01) (26, 2.91735529899597167969e-01) (27, 2.72273874282836914062e+00) (28, 1.05235624313354492188e+01) (29, 2.78710794448852539062e+00) (30, 1.05326786041259765625e+01) (31, 1.05336294174194335938e+01) (32, 1.05786676406860351562e+01) (33, 1.04111118316650390625e+01) (34, 1.05399465560913085938e+01) (35, 1.04266490936279296875e+01) (36, 1.04809293746948242188e+01) (37, 1.04870042800903320312e+01) (38, 1.05010795593261718750e+01) (39, 2.79261422157287597656e+00) (40, 1.05895738601684570312e+01) (41, 2.88038229942321777344e+00) (42, 2.81476402282714843750e+00) (43, -4.31328743696212768555e-01) (44, 2.72781395912170410156e+00) (45, 3.19546431303024291992e-01) (46, -5.44866472482681274414e-02) (47, 2.54047363996505737305e-01) (48, 2.71115326881408691406e+00) (49, 2.71187496185302734375e+00) (50, 2.88929533958435058594e+00) (51, 1.19083642959594726562e+00) (52, -1.01803421974182128906e+00) (53, 2.57639050483703613281e-01) (54, 2.73169055581092834473e-02) (55, -2.52887934446334838867e-01) (56, 6.55556544661521911621e-02) (57, 2.78491169214248657227e-01) (58, 2.91933894157409667969e-01) (59, -4.91526335477828979492e-01) (60, -7.81011432409286499023e-02) (61, -3.84382635354995727539e-01) (62, -4.08804923295974731445e-01) (63, -4.55290228128433227539e-01) (64, 1.15195699036121368408e-01) (65, -1.94351583719253540039e-01) (66, 1.80690079927444458008e-01) (67, -1.04738450050354003906e+00) (68, -5.17723523080348968506e-03) (69, 3.02254170179367065430e-01) (70, -3.00207823514938354492e-01) (71, 2.44474783539772033691e-01) (72, 1.18471998721361160278e-02) (73, -5.88941395282745361328e-01) (74, 5.05169257521629333496e-02) (75, 3.55546511709690093994e-02) (76, -3.95430058240890502930e-01) (77, -4.47607189416885375977e-01) (78, 4.63223129510879516602e-01) (79, -1.50545239448547363281e+00) (80, 1.76096558570861816406e-01) (81, 2.86843806505203247070e-01) (82, -5.43207675218582153320e-02) (83, -3.98440510034561157227e-01) (84, 1.32873207330703735352e-02) (85, -3.35624605417251586914e-01) (86, -1.33453473448753356934e-01) (87, 1.58892109990119934082e-01) (88, -4.58760768175125122070e-01) (89, -1.21260136365890502930e-01) (90, 3.00026893615722656250e-01) (91, -1.41582757234573364258e-01) (92, -1.51335950940847396851e-02) (93, -2.42545056343078613281e+00) (94, 1.05096387863159179688e+01) (95, 2.74086403846740722656e+00) (96, -4.28165197372436523438e-02) (97, -3.05122435092926025391e-01) (98, -7.89068043231964111328e-02) (99, -2.47432518005371093750e+00) (100, 4.30552288889884948730e-02) (101, 2.16489043086767196655e-02) (102, 4.84269827604293823242e-01) (103, -2.85445004701614379883e-01) (104, 3.28620299696922302246e-02) (105, 1.59631907939910888672e-01) (106, -7.15824067592620849609e-02) (107, 3.81954833865165710449e-02) (108, 2.85171675682067871094e+00) (109, -2.92946994304656982422e-01) (110, 5.05756065249443054199e-02) (111, 1.05913410186767578125e+01) (112, 2.79228973388671875000e+00) (113, 2.74723315238952636719e+00) (114, 1.04834089279174804688e+01) (115, -2.37073850631713867188e+00) (116, -9.51167047023773193359e-01) (117, -4.69861060380935668945e-01) (118, -1.03218436241149902344e+00) (119, 1.23017337173223495483e-02) (120, 1.05298051834106445312e+01) (121, 2.82319068908691406250e+00) (122, 2.72547984123229980469e+00) (123, 1.04423837661743164062e+01) (124, 1.05684490203857421875e+01) (125, -4.94709581136703491211e-01) (126, -8.73163491487503051758e-02) (127, -8.09718817472457885742e-02) (128, -4.37385402619838714600e-03) (129, 1.89810335636138916016e-01) (130, 4.25505846738815307617e-01) (131, -4.21590507030487060547e-02) (132, -4.34644818305969238281e-02) (133, -4.05960232019424438477e-01) (134, -1.26840561628341674805e-01) (135, 4.02612477540969848633e-01) (136, -2.88096237927675247192e-02) (137, 4.50791954994201660156e-01) (138, 1.04037895202636718750e+01) (139, 2.75061917304992675781e+00) (140, 1.04836235046386718750e+01) (141, 2.89312362670898437500e+00) (142, 2.74889969825744628906e+00) (143, 1.05718069076538085938e+01) (144, 1.04252033233642578125e+01) (145, -3.55366647243499755859e-01) (146, -8.36337953805923461914e-02) (147, 2.65835195779800415039e-01) (148, 1.90862074494361877441e-01) (149, 3.92037808895111083984e-01) (150, -4.72891926765441894531e-02) (151, -1.25530689954757690430e-01) (152, 1.29170882701873779297e+00) (153, 1.04948558807373046875e+01) (154, -1.46632695198059082031e+00) (155, 1.19173511862754821777e-01) (156, -8.79644155502319335938e-02) (157, 9.87463258206844329834e-03) (158, 1.73814624547958374023e-01) (159, 2.88512080907821655273e-01) (160, 1.84355050325393676758e-01) (161, 1.04497795104980468750e+01) (162, -7.90730863809585571289e-02) (0, -7.30017542839050292969e-01) (1, -2.19333291053771972656e+00) (2, -7.58283138275146484375e-01) (3, -1.28640866279602050781e+00) (4, 4.87389862537384033203e-01) (5, -1.14543962478637695312e+00) (6, -1.25324416160583496094e+00) (7, -2.04791760444641113281e+00) (8, -1.15349638462066650391e+00) (9, -2.24295783042907714844e+00) (10, -2.20312452316284179688e+00) (11, -2.23242521286010742188e+00) (12, -2.21081423759460449219e+00) (13, -3.09853506088256835938e+00) (14, -1.08498597145080566406e+00) (15, -1.01272964477539062500e+00) (16, -2.38746809959411621094e+00) (17, -3.13896727561950683594e+00) (18, -3.22053527832031250000e+00) (19, -3.23091769218444824219e+00) (20, -3.18563628196716308594e+00) (21, -3.11873912811279296875e+00) (22, -2.14885926246643066406e+00) (23, -2.41128516197204589844e+00) (24, -2.04843831062316894531e+00) (25, -1.88857698440551757812e+00) (26, -1.62133753299713134766e+00) (27, -1.12905693054199218750e+00) (28, 1.04985074996948242188e+01) (29, -1.22434258460998535156e+00) (30, 1.04005937576293945312e+01) (31, 1.04552288055419921875e+01) (32, 1.05075836181640625000e+01) (33, 1.04501037597656250000e+01) (34, 1.04567718505859375000e+01) (35, 1.04574003219604492188e+01) (36, 1.05926160812377929688e+01) (37, 1.04690437316894531250e+01) (38, 1.04537296295166015625e+01) (39, -2.74748444557189941406e-01) (40, 1.04703330993652343750e+01) (41, -2.05587655305862426758e-01) (42, -1.24349832534790039062e+00) (43, -1.68066668510437011719e+00) (44, -1.20989441871643066406e+00) (45, -2.28313040733337402344e+00) (46, -7.61999309062957763672e-01) (47, -1.50846827030181884766e+00) (48, -1.20607995986938476562e+00) (49, -1.14913892745971679688e+00) (50, -1.12431073188781738281e+00) (51, -6.97944164276123046875e-01) (52, -7.12920069694519042969e-01) (53, -1.86252307891845703125e+00) (54, -2.05532717704772949219e+00) (55, -7.17111468315124511719e-01) (56, -2.15224385261535644531e+00) (57, -1.85897099971771240234e+00) (58, -2.37959218025207519531e+00) (59, -4.27600353956222534180e-01) (60, -1.12715387344360351562e+00) (61, -8.29627871513366699219e-01) (62, -1.12695145606994628906e+00) (63, -4.51110452413558959961e-01) (64, -1.06611847877502441406e+00) (65, -3.22159141302108764648e-01) (66, -2.78179764747619628906e+00) (67, -6.94082856178283691406e-01) (68, -2.04493117332458496094e+00) (69, -2.33021879196166992188e+00) (70, -2.57099539041519165039e-01) (71, -1.55163753032684326172e+00) (72, -1.18582892417907714844e+00) (73, -6.16998434066772460938e-01) (74, -9.99276697635650634766e-01) (75, -1.97597992420196533203e+00) (76, -6.70959591865539550781e-01) (77, -1.11472880840301513672e+00) (78, -1.72299337387084960938e+00) (79, 8.22718292474746704102e-02) (80, -1.91089606285095214844e+00) (81, -2.08204817771911621094e+00) (82, -6.56805694103240966797e-01) (83, -1.15998709201812744141e+00) (84, -3.25357270240783691406e+00) (85, -2.24780499935150146484e-01) (86, -1.06930470466613769531e+00) (87, -2.31593847274780273438e+00) (88, -4.93161678314208984375e-01) (89, -1.21972775459289550781e+00) (90, -2.31848740577697753906e+00) (91, -7.73905992507934570312e-01) (92, -1.16261708736419677734e+00) (93, 5.07875204086303710938e-01) (94, 1.04008884429931640625e+01) (95, -2.90325701236724853516e-01) (96, -1.09293746948242187500e+00) (97, -8.40628504753112792969e-01) (98, -1.13475143909454345703e+00) (99, 4.30523008108139038086e-01) (100, -1.54985284805297851562e+00) (101, -2.16713976860046386719e+00) (102, -1.75201272964477539062e+00) (103, -6.61990523338317871094e-01) (104, -2.17634439468383789062e+00) (105, -3.11796641349792480469e+00) (106, -8.62135291099548339844e-01) (107, -1.26077950000762939453e+00) (108, -2.78703272342681884766e-01) (109, -8.23385834693908691406e-01) (110, -2.22080445289611816406e+00) (111, 1.04323921203613281250e+01) (112, 1.45463451743125915527e-01) (113, -2.94195473194122314453e-01) (114, 1.05379209518432617188e+01) (115, 3.44160616397857666016e-01) (116, -6.15948319435119628906e-01) (117, -4.83978837728500366211e-01) (118, 1.50490567088127136230e-01) (119, -1.09920072555541992188e+00) (120, 1.05799217224121093750e+01) (121, -6.15491807460784912109e-01) (122, -3.07176321744918823242e-01) (123, 1.04828205108642578125e+01) (124, 1.03938627243041992188e+01) (125, -7.99761414527893066406e-01) (126, -1.07975709438323974609e+00) (127, -1.96034324169158935547e+00) (128, -1.21137404441833496094e+00) (129, -3.23722052574157714844e+00) (130, -1.73416519165039062500e+00) (131, -9.87368643283843994141e-01) (132, -1.15082967281341552734e+00) (133, -6.50868654251098632812e-01) (134, -2.09924077987670898438e+00) (135, -1.73896217346191406250e+00) (136, -2.13048815727233886719e+00) (137, -6.99370503425598144531e-01) (138, 1.05803861618041992188e+01) (139, -1.64944395422935485840e-01) (140, 1.05858306884765625000e+01) (141, -2.96610713005065917969e-01) (142, 1.41870781779289245605e-01) (143, 1.05711908340454101562e+01) (144, 1.04170131683349609375e+01) (145, -7.60109901428222656250e-01) (146, -1.00185346603393554688e+00) (147, -2.41337037086486816406e+00) (148, -2.36146783828735351562e+00) (149, -1.81701517105102539062e+00) (150, -1.60925817489624023438e+00) (151, -2.18968439102172851562e+00) (152, -7.33943164348602294922e-01) (153, 1.05753784179687500000e+01) (154, 2.07889050245285034180e-01) (155, -3.13896107673645019531e+00) (156, -1.07516610622406005859e+00) (157, -2.19310927391052246094e+00) (158, -2.02450442314147949219e+00) (159, -2.38467669486999511719e+00) (160, -2.73136138916015625000e+00) (161, 1.04107217788696289062e+01) (162, -2.20055174827575683594e+00) (0, -8.83334398269653320312e-01) (1, -2.06965994834899902344e+00) (2, -6.19092226028442382812e-01) (3, -1.10195803642272949219e+00) (4, 4.25919026136398315430e-01) (5, -1.12964057922363281250e+00) (6, -1.09219658374786376953e+00) (7, -2.21346569061279296875e+00) (8, -1.03549015522003173828e+00) (9, -2.06015825271606445312e+00) (10, -2.23169827461242675781e+00) (11, -2.11503481864929199219e+00) (12, -2.23620486259460449219e+00) (13, -3.13562273979187011719e+00) (14, -1.07264137268066406250e+00) (15, -1.16273057460784912109e+00) (16, -2.42229056358337402344e+00) (17, -3.25633335113525390625e+00) (18, -3.26884460449218750000e+00) (19, -3.21335887908935546875e+00) (20, -3.12129664421081542969e+00) (21, -3.08652663230895996094e+00) (22, -2.23848271369934082031e+00) (23, -2.33982682228088378906e+00) (24, -2.06562328338623046875e+00) (25, -1.86464953422546386719e+00) (26, -1.50860846042633056641e+00) (27, -1.26483535766601562500e+00) (28, 1.05386791229248046875e+01) (29, -1.15067172050476074219e+00) (30, 1.04598712921142578125e+01) (31, 1.05420837402343750000e+01) (32, 1.05049266815185546875e+01) (33, 1.04485731124877929688e+01) (34, 1.05280771255493164062e+01) (35, 1.03932723999023437500e+01) (36, 1.04068841934204101562e+01) (37, 1.05013961791992187500e+01) (38, 1.04240541458129882812e+01) (39, -1.42473921179771423340e-01) (40, 1.04854850769042968750e+01) (41, -2.63836801052093505859e-01) (42, -1.19383358955383300781e+00) (43, -1.69090509414672851562e+00) (44, -1.10523128509521484375e+00) (45, -2.42112064361572265625e+00) (46, -7.22238540649414062500e-01) (47, -1.43862736225128173828e+00) (48, -1.26143622398376464844e+00) (49, -1.15768742561340332031e+00) (50, -1.23691129684448242188e+00) (51, -6.88960909843444824219e-01) (52, -6.89256191253662109375e-01) (53, -1.86474680900573730469e+00) (54, -2.17488551139831542969e+00) (55, -7.10632443428039550781e-01) (56, -2.13054013252258300781e+00) (57, -1.86580026149749755859e+00) (58, -2.30889153480529785156e+00) (59, -5.65725386142730712891e-01) (60, -1.06031250953674316406e+00) (61, -6.99649095535278320312e-01) (62, -1.17822206020355224609e+00) (63, -5.86925446987152099609e-01) (64, -1.13767063617706298828e+00) (65, -3.02124828100204467773e-01) (66, -2.78173995018005371094e+00) (67, -7.51366734504699707031e-01) (68, -2.19254422187805175781e+00) (69, -2.35983633995056152344e+00) (70, -3.82108777761459350586e-01) (71, -1.48409807682037353516e+00) (72, -1.07369577884674072266e+00) (73, -6.92342758178710937500e-01) (74, -1.14197564125061035156e+00) (75, -1.95918333530426025391e+00) (76, -6.84294223785400390625e-01) (77, -1.01766705513000488281e+00) (78, -1.83635616302490234375e+00) (79, 2.13580876588821411133e-01) (80, -1.82238292694091796875e+00) (81, -2.10801124572753906250e+00) (82, -7.16513276100158691406e-01) (83, -1.24780988693237304688e+00) (84, -3.08175969123840332031e+00) (85, -2.04046487808227539062e-01) (86, -1.15064859390258789062e+00) (87, -2.32242202758789062500e+00) (88, -4.79257047176361083984e-01) (89, -1.23037075996398925781e+00) (90, -2.26309585571289062500e+00) (91, -6.93159937858581542969e-01) (92, -1.24328136444091796875e+00) (93, 5.11996090412139892578e-01) (94, 1.05458202362060546875e+01) (95, -2.42542013525962829590e-01) (96, -1.06878232955932617188e+00) (97, -6.95639729499816894531e-01) (98, -1.14425158500671386719e+00) (99, 5.07065415382385253906e-01) (100, -1.63448154926300048828e+00) (101, -2.10164928436279296875e+00) (102, -1.80793094635009765625e+00) (103, -6.34486079216003417969e-01) (104, -2.18619823455810546875e+00) (105, -3.11658334732055664062e+00) (106, -8.17834377288818359375e-01) (107, -1.08396780490875244141e+00) (108, -1.80258482694625854492e-01) (109, -6.92447662353515625000e-01) (110, -2.11268353462219238281e+00) (111, 1.04193496704101562500e+01) (112, 5.04385232925415039062e-02) (113, -2.45782479643821716309e-01) (114, 1.04370565414428710938e+01) (115, 4.20948684215545654297e-01) (116, -7.46801257133483886719e-01) (117, -4.66187328100204467773e-01) (118, 2.20795243978500366211e-01) (119, -1.21614897251129150391e+00) (120, 1.05870695114135742188e+01) (121, -4.89795625209808349609e-01) (122, -1.43378600478172302246e-01) (123, 1.04093046188354492188e+01) (124, 1.05236797332763671875e+01) (125, -6.91032648086547851562e-01) (126, -1.10548925399780273438e+00) (127, -2.00637102127075195312e+00) (128, -1.15765655040740966797e+00) (129, -3.27245283126831054688e+00) (130, -1.90365028381347656250e+00) (131, -1.01827991008758544922e+00) (132, -1.12057137489318847656e+00) (133, -6.76271915435791015625e-01) (134, -2.10264754295349121094e+00) (135, -1.91855764389038085938e+00) (136, -2.15450835227966308594e+00) (137, -8.58476221561431884766e-01) (138, 1.05776023864746093750e+01) (139, -2.90519833564758300781e-01) (140, 1.05576629638671875000e+01) (141, -1.91273838281631469727e-01) (142, 3.25329601764678955078e-03) (143, 1.04479980468750000000e+01) (144, 1.05707635879516601562e+01) (145, -7.99592137336730957031e-01) (146, -1.04825794696807861328e+00) (147, -2.39047336578369140625e+00) (148, -2.38315868377685546875e+00) (149, -1.79311490058898925781e+00) (150, -1.70330953598022460938e+00) (151, -2.20422697067260742188e+00) (152, -7.84346640110015869141e-01) (153, 1.04451246261596679688e+01) (154, 1.19830697774887084961e-01) (155, -3.25954747200012207031e+00) (156, -1.09669089317321777344e+00) (157, -2.10689997673034667969e+00) (158, -1.99111831188201904297e+00) (159, -2.35248398780822753906e+00) (160, -2.68038439750671386719e+00) (161, 1.04746227264404296875e+01) (162, -2.19927000999450683594e+00) (0, -8.02098989486694335938e-01) (1, -2.23116230964660644531e+00) (2, -6.21217370033264160156e-01) (3, -1.20031809806823730469e+00) (4, 4.40396457910537719727e-01) (5, -1.09087157249450683594e+00) (6, -1.19334030151367187500e+00) (7, -2.12456369400024414062e+00) (8, -1.02488863468170166016e+00) (9, -2.05596518516540527344e+00) (10, -2.08141374588012695312e+00) (11, -2.22762584686279296875e+00) (12, -2.07826185226440429688e+00) (13, -3.22482061386108398438e+00) (14, -1.03163659572601318359e+00) (15, -1.18189072608947753906e+00) (16, -2.33317923545837402344e+00) (17, -3.19142818450927734375e+00) (18, -3.18205618858337402344e+00) (19, -3.13878989219665527344e+00) (20, -3.10679507255554199219e+00) (21, -3.12999176979064941406e+00) (22, -2.05197215080261230469e+00) (23, -2.24591159820556640625e+00) (24, -2.13061332702636718750e+00) (25, -1.79192948341369628906e+00) (26, -1.58130729198455810547e+00) (27, -1.09763264656066894531e+00) (28, 1.04623765945434570312e+01) (29, -1.15946960449218750000e+00) (30, 1.04283561706542968750e+01) (31, 1.05470161437988281250e+01) (32, 1.05346269607543945312e+01) (33, 1.04149322509765625000e+01) (34, 1.04346494674682617188e+01) (35, 1.04374504089355468750e+01) (36, 1.04120130538940429688e+01) (37, 1.05068254470825195312e+01) (38, 1.05571336746215820312e+01) (39, -1.26744017004966735840e-01) (40, 1.04951076507568359375e+01) (41, -1.80473119020462036133e-01) (42, -1.09069442749023437500e+00) (43, -1.72334027290344238281e+00) (44, -1.11106538772583007812e+00) (45, -2.27697706222534179688e+00) (46, -7.73833870887756347656e-01) (47, -1.55535018444061279297e+00) (48, -1.25238752365112304688e+00) (49, -1.12249422073364257812e+00) (50, -1.27906513214111328125e+00) (51, -8.65410745143890380859e-01) (52, -2.93176144361495971680e-01) (53, -1.92039012908935546875e+00) (54, -2.05742025375366210938e+00) (55, -7.83894419670104980469e-01) (56, -2.11346364021301269531e+00) (57, -2.02103376388549804688e+00) (58, -2.41495084762573242188e+00) (59, -6.24951422214508056641e-01) (60, -1.02434372901916503906e+00) (61, -8.37224125862121582031e-01) (62, -1.03251576423645019531e+00) (63, -5.21256744861602783203e-01) (64, -1.10888648033142089844e+00) (65, -2.49845728278160095215e-01) (66, -2.67189383506774902344e+00) (67, -7.17454314231872558594e-01) (68, -2.13483619689941406250e+00) (69, -2.31691098213195800781e+00) (70, -3.32466393709182739258e-01) (71, -1.61676847934722900391e+00) (72, -1.14740669727325439453e+00) (73, -7.39561438560485839844e-01) (74, -1.10708105564117431641e+00) (75, -2.03872871398925781250e+00) (76, -7.87369132041931152344e-01) (77, -1.03436791896820068359e+00) (78, -1.83262419700622558594e+00) (79, 1.19554519653320312500e-01) (80, -1.80389046669006347656e+00) (81, -2.14643335342407226562e+00) (82, -7.86989569664001464844e-01) (83, -1.23758947849273681641e+00) (84, -3.17582488059997558594e+00) (85, -3.57057362794876098633e-01) (86, -1.21369016170501708984e+00) (87, -2.39941048622131347656e+00) (88, -5.87501406669616699219e-01) (89, -1.19947195053100585938e+00) (90, -2.39931058883666992188e+00) (91, -7.65435338020324707031e-01) (92, -1.14995765686035156250e+00) (93, 5.21487772464752197266e-01) (94, 1.05392131805419921875e+01) (95, -1.20434090495109558105e-01) (96, -1.00701153278350830078e+00) (97, -7.92400479316711425781e-01) (98, -1.18823111057281494141e+00) (99, 4.26544010639190673828e-01) (100, -1.68831694126129150391e+00) (101, -2.09598636627197265625e+00) (102, -1.82112264633178710938e+00) (103, -7.62032508850097656250e-01) (104, -2.22775411605834960938e+00) (105, -3.09488058090209960938e+00) (106, -8.24926018714904785156e-01) (107, -1.22859871387481689453e+00) (108, -1.75256282091140747070e-01) (109, -6.95807278156280517578e-01) (110, -2.15134096145629882812e+00) (111, 1.04428443908691406250e+01) (112, 8.65702331066131591797e-03) (113, -1.54916033148765563965e-01) (114, 1.04707717895507812500e+01) (115, 4.85101938247680664062e-01) (116, -6.08945608139038085938e-01) (117, -4.95514005422592163086e-01) (118, 2.07959920167922973633e-01) (119, -1.18653774261474609375e+00) (120, 1.05886421203613281250e+01) (121, -6.38845622539520263672e-01) (122, -1.86042755842208862305e-01) (123, 1.05042009353637695312e+01) (124, 1.05841207504272460938e+01) (125, -7.40303635597229003906e-01) (126, -1.08848524093627929688e+00) (127, -1.88415849208831787109e+00) (128, -1.10368812084197998047e+00) (129, -3.09942841529846191406e+00) (130, -1.86195945739746093750e+00) (131, -1.01814699172973632812e+00) (132, -1.14188420772552490234e+00) (133, -6.47772550582885742188e-01) (134, -2.23006105422973632812e+00) (135, -1.78142642974853515625e+00) (136, -2.10430622100830078125e+00) (137, -7.92981445789337158203e-01) (138, 1.05701026916503906250e+01) (139, -2.35315456986427307129e-01) (140, 1.04197978973388671875e+01) (141, -2.37430796027183532715e-01) (142, 8.19523334503173828125e-02) (143, 1.04683523178100585938e+01) (144, 1.04154729843139648438e+01) (145, -6.87178015708923339844e-01) (146, -1.16375088691711425781e+00) (147, -2.40790843963623046875e+00) (148, -2.30007123947143554688e+00) (149, -1.92144322395324707031e+00) (150, -1.69113302230834960938e+00) (151, -2.11956715583801269531e+00) (152, -8.61725151538848876953e-01) (153, 1.04146366119384765625e+01) (154, 9.93866026401519775391e-02) (155, -3.07648444175720214844e+00) (156, -1.17644953727722167969e+00) (157, -2.11033987998962402344e+00) (158, -1.88584268093109130859e+00) (159, -2.37827420234680175781e+00) (160, -2.71079993247985839844e+00) (161, 1.04215888977050781250e+01) (162, -2.22492742538452148438e+00) (0, -1.80517882108688354492e-01) (1, 1.89832791686058044434e-01) (2, -1.79923206567764282227e-01) (3, 4.82090473175048828125e+00) (4, -4.51201725006103515625e+00) (5, 4.75737237930297851562e+00) (6, 1.37817054986953735352e-01) (7, 1.83793343603610992432e-03) (8, 1.23980253934860229492e-01) (9, 6.42290264368057250977e-02) (10, 1.23686894774436950684e-01) (11, 5.57351112365722656250e-02) (12, 4.37231734395027160645e-02) (13, 1.66165977716445922852e-01) (14, 2.20928099006414413452e-02) (15, -1.49727165699005126953e-01) (16, 2.00439125299453735352e-01) (17, 1.17084637284278869629e-01) (18, 2.69253432750701904297e-01) (19, 2.19943910837173461914e-01) (20, 8.59188437461853027344e-02) (21, 2.24075287580490112305e-01) (22, 5.01210503280162811279e-02) (23, 1.89409792423248291016e-01) (24, 1.13142058253288269043e-01) (25, 4.11504507064819335938e-01) (26, 9.72355902194976806641e-02) (27, 4.77334785461425781250e+00) (28, 1.04478092193603515625e+01) (29, 4.68536806106567382812e+00) (30, 1.05378589630126953125e+01) (31, 1.04807205200195312500e+01) (32, 1.04191102981567382812e+01) (33, 1.05713653564453125000e+01) (34, 1.04537563323974609375e+01) (35, 1.05476016998291015625e+01) (36, 1.04808692932128906250e+01) (37, 1.04038352966308593750e+01) (38, 1.05481567382812500000e+01) (39, 4.67191934585571289062e+00) (40, 1.04238634109497070312e+01) (41, 4.72536945343017578125e+00) (42, 4.68345355987548828125e+00) (43, -1.40184402465820312500e-01) (44, 4.84733438491821289062e+00) (45, 3.35974007844924926758e-01) (46, 3.08024287223815917969e-01) (47, 1.99905306100845336914e-01) (48, 4.75227165222167968750e+00) (49, 4.74875545501708984375e+00) (50, 4.67414045333862304688e+00) (51, 2.09439945220947265625e+00) (52, -4.31594163179397583008e-01) (53, 3.03869396448135375977e-01) (54, 1.73892647027969360352e-01) (55, -1.41766909509897232056e-02) (56, 2.27507203817367553711e-01) (57, 2.33682751655578613281e-01) (58, 3.52503150701522827148e-01) (59, -8.26039135456085205078e-01) (60, 2.03629191964864730835e-02) (61, -1.69934276491403579712e-02) (62, -8.77129435539245605469e-02) (63, -3.65272998809814453125e-01) (64, 4.01501119136810302734e-01) (65, -6.77682042121887207031e-01) (66, 9.58377569913864135742e-02) (67, -4.20616775751113891602e-01) (68, 1.84926182031631469727e-01) (69, 3.17689210176467895508e-01) (70, -5.37326484918594360352e-02) (71, 1.16256877779960632324e-01) (72, 3.35522815585136413574e-02) (73, -5.64098358154296875000e-02) (74, 8.89742821455001831055e-02) (75, 3.30184474587440490723e-02) (76, -1.48207277059555053711e-01) (77, -1.75246506929397583008e-01) (78, 7.13042974472045898438e-01) (79, -8.45036983489990234375e-01) (80, 4.05103564262390136719e-01) (81, 1.23363956809043884277e-01) (82, 2.48561561107635498047e-01) (83, 2.67572049051523208618e-02) (84, 2.65229254961013793945e-01) (85, -1.11528322100639343262e-01) (86, 1.74202412366867065430e-01) (87, 2.92599409818649291992e-01) (88, -1.54665589332580566406e-01) (89, 7.42160975933074951172e-02) (90, 3.30654948949813842773e-01) (91, 4.31261584162712097168e-02) (92, 1.05484664440155029297e-01) (93, -4.53351354598999023438e+00) (94, 1.05431232452392578125e+01) (95, 4.76164388656616210938e+00) (96, 8.11451673507690429688e-02) (97, -1.76427476108074188232e-02) (98, 1.24406460672616958618e-02) (99, -4.54991292953491210938e+00) (100, -4.93297688663005828857e-02) (101, 1.33874312043190002441e-01) (102, 8.13836514949798583984e-01) (103, 2.24036537110805511475e-03) (104, 9.08932983875274658203e-02) (105, 1.25135645270347595215e-01) (106, -1.20303984731435775757e-02) (107, 1.17852374911308288574e-01) (108, 4.70587396621704101562e+00) (109, -6.24254457652568817139e-02) (110, 4.92147058248519897461e-02) (111, 1.05901355743408203125e+01) (112, 4.68844652175903320312e+00) (113, 4.77328395843505859375e+00) (114, 1.04156103134155273438e+01) (115, -4.64001274108886718750e+00) (116, -3.28945606946945190430e-01) (117, -6.19174659252166748047e-01) (118, -8.00174236297607421875e-01) (119, 4.90993857383728027344e-02) (120, 1.04750080108642578125e+01) (121, 4.77286529541015625000e+00) (122, 4.78707361221313476562e+00) (123, 1.05792102813720703125e+01) (124, 1.04250516891479492188e+01) (125, -1.24160528182983398438e-01) (126, 8.76643061637878417969e-02) (127, 2.54206974059343338013e-02) (128, 4.02857288718223571777e-02) (129, 1.55285567045211791992e-01) (130, 7.11243629455566406250e-01) (131, 1.71878159046173095703e-01) (132, 4.49588447809219360352e-02) (133, -7.88472890853881835938e-02) (134, 1.62829294800758361816e-01) (135, 3.99321168661117553711e-01) (136, 1.55687406659126281738e-01) (137, 8.79483342170715332031e-01) (138, 1.04429168701171875000e+01) (139, 4.66027927398681640625e+00) (140, 1.04957904815673828125e+01) (141, 4.74565792083740234375e+00) (142, 4.65735483169555664062e+00) (143, 1.05363693237304687500e+01) (144, 1.04162654876708984375e+01) (145, -1.48885652422904968262e-01) (146, 1.31542295217514038086e-01) (147, 2.78292715549468994141e-01) (148, 3.07085126638412475586e-01) (149, 7.82772123813629150391e-01) (150, 6.13582283258438110352e-02) (151, 1.24282017350196838379e-01) (152, 1.96079850196838378906e+00) (153, 1.05923414230346679688e+01) (154, -8.67249131202697753906e-01) (155, 8.87128859758377075195e-02) (156, 8.98316651582717895508e-02) (157, 1.03588942438364028931e-02) (158, 1.71919941902160644531e-01) (159, 4.07130837440490722656e-01) (160, 1.22170031070709228516e-01) (161, 1.05789651870727539062e+01) (162, 1.26519545912742614746e-01) (0, -7.22901105880737304688e-01) (1, -2.12376022338867187500e+00) (2, -7.21009850502014160156e-01) (3, -1.19082689285278320312e+00) (4, 4.12464797496795654297e-01) (5, -1.21693348884582519531e+00) (6, -1.11853456497192382812e+00) (7, -2.15694451332092285156e+00) (8, -1.01282286643981933594e+00) (9, -2.19947552680969238281e+00) (10, -2.14745831489562988281e+00) (11, -2.12718915939331054688e+00) (12, -2.17627048492431640625e+00) (13, -3.14597463607788085938e+00) (14, -1.12570953369140625000e+00) (15, -1.10633623600006103516e+00) (16, -2.25929260253906250000e+00) (17, -3.12641525268554687500e+00) (18, -3.13448905944824218750e+00) (19, -3.18192386627197265625e+00) (20, -3.11389517784118652344e+00) (21, -3.13520812988281250000e+00) (22, -2.24222064018249511719e+00) (23, -2.42375254631042480469e+00) (24, -2.21610569953918457031e+00) (25, -1.91044878959655761719e+00) (26, -1.45289885997772216797e+00) (27, -1.11871314048767089844e+00) (28, 1.05243234634399414062e+01) (29, -1.12671875953674316406e+00) (30, 1.04875354766845703125e+01) (31, 1.04881610870361328125e+01) (32, 1.04747800827026367188e+01) (33, 1.05743198394775390625e+01) (34, 1.05852861404418945312e+01) (35, 1.05496711730957031250e+01) (36, 1.04453372955322265625e+01) (37, 1.05322675704956054688e+01) (38, 1.04369735717773437500e+01) (39, -2.81353533267974853516e-01) (40, 1.05770397186279296875e+01) (41, -1.66677087545394897461e-01) (42, -1.14486765861511230469e+00) (43, -1.73941683769226074219e+00) (44, -1.21842360496520996094e+00) (45, -2.42522311210632324219e+00) (46, -7.14355945587158203125e-01) (47, -1.58882176876068115234e+00) (48, -1.13562059402465820312e+00) (49, -1.21544909477233886719e+00) (50, -1.15567064285278320312e+00) (51, -7.55743861198425292969e-01) (52, -3.91347259283065795898e-01) (53, -1.78724431991577148438e+00) (54, -2.12559437751770019531e+00) (55, -7.67557859420776367188e-01) (56, -2.09883689880371093750e+00) (57, -1.96079933643341064453e+00) (58, -1.07101285457611083984e+00) (59, -5.48377573490142822266e-01) (60, -1.13135838508605957031e+00) (61, -7.82788872718811035156e-01) (62, -1.01479637622833251953e+00) (63, -4.88118618726730346680e-01) (64, -1.09506440162658691406e+00) (65, -2.81490057706832885742e-01) (66, -2.72653436660766601562e+00) (67, -6.70307278633117675781e-01) (68, -2.14103817939758300781e+00) (69, -2.29171109199523925781e+00) (70, -2.39929050207138061523e-01) (71, -1.54103839397430419922e+00) (72, -1.10841083526611328125e+00) (73, -7.01197028160095214844e-01) (74, -1.04742777347564697266e+00) (75, -1.90709078311920166016e+00) (76, -6.97250962257385253906e-01) (77, -1.11523652076721191406e+00) (78, -1.73445796966552734375e+00) (79, 1.26439869403839111328e-01) (80, -1.77771401405334472656e+00) (81, -2.12487244606018066406e+00) (82, -6.70437276363372802734e-01) (83, -1.10958445072174072266e+00) (84, -3.22111845016479492188e+00) (85, -3.08679074048995971680e-01) (86, -1.06934845447540283203e+00) (87, -2.23007726669311523438e+00) (88, -4.78888690471649169922e-01) (89, -1.25987422466278076172e+00) (90, -2.35340332984924316406e+00) (91, -7.63837456703186035156e-01) (92, -1.15592479705810546875e+00) (93, 3.85114312171936035156e-01) (94, 1.05739488601684570312e+01) (95, -1.12579040229320526123e-01) (96, -1.17502927780151367188e+00) (97, -8.12304973602294921875e-01) (98, -1.13322925567626953125e+00) (99, 4.52324390411376953125e-01) (100, -1.68302166461944580078e+00) (101, -2.14844703674316406250e+00) (102, -1.91961216926574707031e+00) (103, -7.17741370201110839844e-01) (104, -2.24185037612915039062e+00) (105, -3.13371658325195312500e+00) (106, -8.48997116088867187500e-01) (107, -1.15257680416107177734e+00) (108, -2.94961154460906982422e-01) (109, -8.21712255477905273438e-01) (110, -2.06843352317810058594e+00) (111, 1.05493164062500000000e+01) (112, 1.04312762618064880371e-01) (113, -1.55456289649009704590e-01) (114, 1.05052480697631835938e+01) (115, 5.35464346408843994141e-01) (116, -7.61107683181762695312e-01) (117, -5.16695559024810791016e-01) (118, 2.27655649185180664062e-01) (119, -1.23008716106414794922e+00) (120, 1.05070581436157226562e+01) (121, -5.73242604732513427734e-01) (122, -2.27994173765182495117e-01) (123, 1.04166498184204101562e+01) (124, 1.05133504867553710938e+01) (125, -7.47519016265869140625e-01) (126, -1.16818118095397949219e+00) (127, -1.92294681072235107422e+00) (128, -1.13080799579620361328e+00) (129, -3.12412238121032714844e+00) (130, -1.87496733665466308594e+00) (131, -1.03997170925140380859e+00) (132, -1.21903860569000244141e+00) (133, -7.59269952774047851562e-01) (134, -2.20759463310241699219e+00) (135, -1.87267732620239257812e+00) (136, -2.05463981628417968750e+00) (137, -7.94586122035980224609e-01) (138, 1.05548744201660156250e+01) (139, -3.05353879928588867188e-01) (140, 1.04922885894775390625e+01) (141, -1.69752210378646850586e-01) (142, 1.18385359644889831543e-01) (143, 1.04364976882934570312e+01) (144, 1.04826107025146484375e+01) (145, -8.16268444061279296875e-01) (146, -1.14524233341217041016e+00) (147, -2.29293203353881835938e+00) (148, -2.25034308433532714844e+00) (149, -1.88323903083801269531e+00) (150, -1.61970615386962890625e+00) (151, -2.15142297744750976562e+00) (152, -7.57917761802673339844e-01) (153, 1.04441118240356445312e+01) (154, 1.79979771375656127930e-01) (155, -3.24344754219055175781e+00) (156, -1.15418958663940429688e+00) (157, -2.10944271087646484375e+00) (158, -1.89159405231475830078e+00) (159, -2.38313412666320800781e+00) (160, -2.73459672927856445312e+00) (161, 1.04028301239013671875e+01) (162, -2.05161190032958984375e+00) (0, -4.32066842913627624512e-02) (1, 1.88894942402839660645e-01) (2, -2.33594983816146850586e-01) (3, 1.05738945007324218750e+01) (4, -1.05451583862304687500e+01) (5, 1.04967412948608398438e+01) (6, 2.14728757739067077637e-01) (7, 1.80528134107589721680e-01) (8, 7.49907642602920532227e-02) (9, 1.52356341481208801270e-01) (10, 1.38810098171234130859e-01) (11, 1.18428826332092285156e-01) (12, 2.47550949454307556152e-01) (13, 2.91360169649124145508e-01) (14, 1.59758135676383972168e-01) (15, -4.57985341548919677734e-01) (16, 2.70186245441436767578e-01) (17, 1.17098152637481689453e-01) (18, 2.37534567713737487793e-01) (19, 3.63010346889495849609e-01) (20, 2.44089692831039428711e-01) (21, 3.35819840431213378906e-01) (22, 2.73780703544616699219e-01) (23, 2.75442391633987426758e-01) (24, 7.56413862109184265137e-02) (25, 2.75339692831039428711e-01) (26, 2.38628119230270385742e-01) (27, 1.04792041778564453125e+01) (28, 1.04800891876220703125e+01) (29, 1.04344205856323242188e+01) (30, 1.04718399047851562500e+01) (31, 1.04120492935180664062e+01) (32, 1.04927148818969726562e+01) (33, 1.05011272430419921875e+01) (34, 1.05928831100463867188e+01) (35, 1.05406160354614257812e+01) (36, 1.04048089981079101562e+01) (37, 1.05355310440063476562e+01) (38, 1.05905427932739257812e+01) (39, 1.04077186584472656250e+01) (40, 1.04158067703247070312e+01) (41, 1.03987522125244140625e+01) (42, 1.04540672302246093750e+01) (43, -3.73919218778610229492e-01) (44, 1.04774312973022460938e+01) (45, 9.60573613643646240234e-01) (46, 2.10586756467819213867e-01) (47, 3.54557335376739501953e-01) (48, 1.04677343368530273438e+01) (49, 1.05694274902343750000e+01) (50, 1.04852657318115234375e+01) (51, 4.45383501052856445312e+00) (52, -7.00161904096603393555e-02) (53, 6.90859675407409667969e-01) (54, 1.76875829696655273438e-01) (55, -1.31192374229431152344e+00) (56, 2.32577040791511535645e-01) (57, -2.34341904520988464355e-01) (58, 1.78528213500976562500e+00) (59, -1.65435266494750976562e+00) (60, 4.98270690441131591797e-02) (61, -6.49831742048263549805e-02) (62, -1.08651354908943176270e-01) (63, -1.54914093017578125000e+00) (64, -1.15241840481758117676e-01) (65, -4.11576986312866210938e+00) (66, 2.54453808069229125977e-01) (67, -1.45167231559753417969e-01) (68, 8.08901339769363403320e-02) (69, 3.04813474416732788086e-01) (70, -9.19765770435333251953e-01) (71, 2.38593846559524536133e-01) (72, -2.24676176905632019043e-01) (73, -6.95015937089920043945e-02) (74, 9.62106138467788696289e-02) (75, -1.40305086970329284668e-01) (76, -4.63650137186050415039e-01) (77, -1.40115171670913696289e-01) (78, 3.89963030815124511719e-01) (79, -2.74159359931945800781e+00) (80, 3.72927546501159667969e-01) (81, 9.96450781822204589844e-02) (82, -1.20871797204017639160e-01) (83, 7.63661712408065795898e-02) (84, 3.93550723791122436523e-01) (85, -4.97117668390274047852e-01) (86, -2.06428915262222290039e-01) (87, 9.53255355358123779297e-01) (88, -1.42562657594680786133e-01) (89, 2.53029137849807739258e-01) (90, 4.01572883129119873047e-01) (91, -6.42831861972808837891e-01) (92, 1.63212314248085021973e-01) (93, -1.05376529693603515625e+01) (94, 1.04314842224121093750e+01) (95, 1.05024423599243164062e+01) (96, -4.44747835397720336914e-01) (97, -3.64494845271110534668e-02) (98, 2.11461886763572692871e-01) (99, -1.04625053405761718750e+01) (100, -1.25129148364067077637e-01) (101, 2.61763274669647216797e-01) (102, 1.91598916053771972656e+00) (103, -3.78038734197616577148e-01) (104, 1.67428061366081237793e-01) (105, 3.98921728134155273438e-01) (106, -3.90199750661849975586e-01) (107, 2.21777126193046569824e-01) (108, 1.05020685195922851562e+01) (109, -1.04107186198234558105e-01) (110, 1.50800660252571105957e-01) (111, 1.04012031555175781250e+01) (112, 1.04724960327148437500e+01) (113, 1.05068864822387695312e+01) (114, 1.04054889678955078125e+01) (115, -1.05327548980712890625e+01) (116, -2.21265524625778198242e-01) (117, -9.73731935024261474609e-01) (118, -1.79752671718597412109e+00) (119, 2.45036140084266662598e-01) (120, 1.05359821319580078125e+01) (121, 1.05836229324340820312e+01) (122, 1.04460582733154296875e+01) (123, 1.04271135330200195312e+01) (124, 1.04390296936035156250e+01) (125, -1.71460479497909545898e-01) (126, 2.15516492724418640137e-01) (127, -3.96334230899810791016e-01) (128, 1.02219730615615844727e-01) (129, 2.95497983694076538086e-01) (130, 1.18019974231719970703e+00) (131, 1.38712510466575622559e-01) (132, 1.44580259919166564941e-01) (133, -1.14786058664321899414e-01) (134, 8.43166410923004150391e-02) (135, 6.88470721244812011719e-01) (136, 1.24345257878303527832e-01) (137, 1.88827037811279296875e+00) (138, 1.04936723709106445312e+01) (139, 1.05486888885498046875e+01) (140, 1.05849666595458984375e+01) (141, 1.05667495727539062500e+01) (142, 1.05568323135375976562e+01) (143, 1.04644021987915039062e+01) (144, 1.04805755615234375000e+01) (145, 1.45797077566385269165e-02) (146, 4.06757295131683349609e-02) (147, 2.96016126871109008789e-01) (148, 1.89205384254455566406e+00) (149, 1.88719749450683593750e+00) (150, 2.67260074615478515625e-01) (151, 1.58821716904640197754e-01) (152, 4.46599054336547851562e+00) (153, 1.04355945587158203125e+01) (154, -2.18929290771484375000e+00) (155, 3.00453305244445800781e-01) (156, 2.11680635809898376465e-01) (157, 1.30667731165885925293e-01) (158, -1.90576657652854919434e-01) (159, 5.54545283317565917969e-01) (160, 2.76434481143951416016e-01) (161, 1.04288969039916992188e+01) (162, 1.08451440930366516113e-01) (0, 1.80751442909240722656e-01) (1, -8.38650017976760864258e-02) (2, 2.09811091423034667969e-01) (3, -9.79463958740234375000e+00) (4, 4.48494625091552734375e+00) (5, -9.78774833679199218750e+00) (6, -8.17559361457824707031e-02) (7, -8.16148072481155395508e-02) (8, 3.36109817028045654297e-01) (9, -1.08066722750663757324e-01) (10, -1.17842152714729309082e-01) (11, -1.45121395587921142578e-01) (12, -5.34445941448211669922e-02) (13, -4.59730803966522216797e-01) (14, 1.94199252873659133911e-02) (15, 1.33345985412597656250e+00) (16, -3.21555435657501220703e-01) (17, -1.03165179491043090820e-01) (18, -2.17940792441368103027e-01) (19, -2.98623681068420410156e-01) (20, -2.99634814262390136719e-01) (21, -2.84347236156463623047e-01) (22, 1.00494034588336944580e-01) (23, -3.04510354995727539062e-01) (24, -1.33739709854125976562e-01) (25, -6.45635187625885009766e-01) (26, -3.34049403667449951172e-01) (27, -9.88047599792480468750e+00) (28, 1.05659170150756835938e+01) (29, -9.79239368438720703125e+00) (30, 1.05027704238891601562e+01) (31, 1.05741767883300781250e+01) (32, 1.04563436508178710938e+01) (33, 1.05400905609130859375e+01) (34, 1.05389966964721679688e+01) (35, 1.03991813659667968750e+01) (36, 1.05118017196655273438e+01) (37, 1.04044294357299804688e+01) (38, 1.04976491928100585938e+01) (39, -1.02226991653442382812e+01) (40, 1.04435510635375976562e+01) (41, -1.01382303237915039062e+01) (42, -9.84213829040527343750e+00) (43, 1.33813714981079101562e+00) (44, -9.95418930053710937500e+00) (45, -2.47591614723205566406e+00) (46, 8.66726487874984741211e-02) (47, -3.16284656524658203125e-01) (48, -9.77560234069824218750e+00) (49, -9.89507198333740234375e+00) (50, -9.91985702514648437500e+00) (51, -1.05853929519653320312e+01) (52, 7.47138857841491699219e-01) (53, -2.54737758636474609375e+00) (54, 4.59890216588973999023e-02) (55, 3.23446750640869140625e+00) (56, -3.12417268753051757812e-01) (57, 3.66685748100280761719e-01) (58, -1.05538692474365234375e+01) (59, 1.52105593681335449219e+00) (60, 5.10008037090301513672e-01) (61, 8.50721001625061035156e-01) (62, 3.70385885238647460938e-01) (63, 1.00423657894134521484e+00) (64, -5.11533319950103759766e-01) (65, 1.64810943603515625000e+00) (66, 4.48819622397422790527e-02) (67, 7.16493248939514160156e-01) (68, 8.01180489361286163330e-03) (69, -4.24553513526916503906e-01) (70, 1.70811057090759277344e+00) (71, -4.92480993270874023438e-01) (72, 7.70511269569396972656e-01) (73, 7.16174721717834472656e-01) (74, 3.55311632156372070312e-01) (75, 4.56102132797241210938e-01) (76, 8.00104260444641113281e-01) (77, 2.81301915645599365234e-01) (78, -4.37672197818756103516e-01) (79, 1.40752184391021728516e+00) (80, -2.92080700397491455078e-01) (81, -2.89129108190536499023e-01) (82, 2.83286631107330322266e-01) (83, -1.61564752459526062012e-01) (84, -4.18495297431945800781e-01) (85, 7.92957425117492675781e-01) (86, 9.08787965774536132812e-01) (87, -6.64035677909851074219e-01) (88, 1.96187853813171386719e-01) (89, -1.62166640162467956543e-01) (90, -7.26202726364135742188e-01) (91, 2.16331315040588378906e+00) (92, -1.32652502506971359253e-02) (93, 4.48037862777709960938e+00) (94, 1.04792890548706054688e+01) (95, -1.02423114776611328125e+01) (96, 4.92484569549560546875e-01) (97, 6.78134322166442871094e-01) (98, -1.02659836411476135254e-01) (99, 4.37940979003906250000e+00) (100, -5.12036681175231933594e-02) (101, -5.62578253448009490967e-03) (102, -2.51685237884521484375e+00) (103, 1.34945809841156005859e+00) (104, 8.72937031090259552002e-03) (105, -4.72359061241149902344e-01) (106, 6.37920379638671875000e-01) (107, -9.29858833551406860352e-02) (108, -1.01704359054565429688e+01) (109, 1.82250067591667175293e-01) (110, -1.08439903706312179565e-02) (111, 1.05008821487426757812e+01) (112, -6.49751186370849609375e+00) (113, -1.02460126876831054688e+01) (114, 1.05193996429443359375e+01) (115, 4.53164672851562500000e+00) (116, 4.43028360605239868164e-01) (117, 1.26607263088226318359e+00) (118, 1.18001139163970947266e+00) (119, -6.20081834495067596436e-03) (120, 1.05160398483276367188e+01) (121, -6.20826053619384765625e+00) (122, -1.02078571319580078125e+01) (123, 1.04828567504882812500e+01) (124, 1.05848426818847656250e+01) (125, 3.55923593044281005859e-01) (126, 3.25036823749542236328e-01) (127, 1.23489248752593994141e+00) (128, -1.08496949076652526855e-01) (129, -4.68204736709594726562e-01) (130, -2.44865989685058593750e+00) (131, 3.40061545372009277344e-01) (132, -1.75657972693443298340e-01) (133, 3.26670527458190917969e-01) (134, -4.31854128837585449219e-02) (135, -4.83852177858352661133e-01) (136, -8.96435230970382690430e-05) (137, -4.73635625839233398438e+00) (138, 1.04733924865722656250e+01) (139, -1.01904430389404296875e+01) (140, 1.05876541137695312500e+01) (141, -1.02554893493652343750e+01) (142, -6.58493423461914062500e+00) (143, 1.04975156784057617188e+01) (144, 1.05016775131225585938e+01) (145, 2.88375914096832275391e-01) (146, -5.31941056251525878906e-02) (147, -6.18285655975341796875e-01) (148, -2.04307603836059570312e+00) (149, -4.47497701644897460938e+00) (150, 2.53599643707275390625e-01) (151, -3.26001457870006561279e-03) (152, -1.05324163436889648438e+01) (153, 1.05229463577270507812e+01) (154, 7.57927238941192626953e-01) (155, -1.27655655145645141602e-01) (156, -6.67637735605239868164e-02) (157, -3.37173938751220703125e-01) (158, 7.91383028030395507812e-01) (159, -8.58804047107696533203e-01) (160, 2.47573658823966979980e-01) (161, 1.04305562973022460938e+01) (162, -6.05019927024841308594e-02) (0, -3.29423516988754272461e-01) (1, -3.23741972446441650391e-01) (2, -3.26502889394760131836e-01) (3, 2.75679636001586914062e+00) (4, -2.11804956197738647461e-01) (5, 2.71842336654663085938e+00) (6, -6.34709149599075317383e-02) (7, -7.81133413314819335938e-01) (8, -1.87581285834312438965e-01) (9, -6.90723776817321777344e-01) (10, -7.58694767951965332031e-01) (11, -7.59948492050170898438e-01) (12, -7.82106399536132812500e-01) (13, -4.57916319370269775391e-01) (14, -1.89130768179893493652e-01) (15, -4.64810840785503387451e-02) (16, 2.69536542892456054688e+00) (17, -5.06822288036346435547e-01) (18, -3.38620126247406005859e-01) (19, -4.27251756191253662109e-01) (20, -4.46178495883941650391e-01) (21, -4.08733904361724853516e-01) (22, -7.12633371353149414062e-01) (23, 2.70568752288818359375e+00) (24, -8.47415924072265625000e-01) (25, 2.25035309791564941406e+00) (26, 1.01932263374328613281e+00) (27, 2.88201665878295898438e+00) (28, 1.04161415100097656250e+01) (29, 2.79547739028930664062e+00) (30, 1.04846525192260742188e+01) (31, 1.04696979522705078125e+01) (32, 1.04702091217041015625e+01) (33, 1.05411291122436523438e+01) (34, 1.05164899826049804688e+01) (35, 1.04418773651123046875e+01) (36, 1.05495491027832031250e+01) (37, 1.04436140060424804688e+01) (38, 1.05281620025634765625e+01) (39, 1.51793766021728515625e+00) (40, 1.04203081130981445312e+01) (41, 1.40226054191589355469e+00) (42, 2.77697658538818359375e+00) (43, -4.69791650772094726562e-01) (44, 2.81133127212524414062e+00) (45, 2.65245819091796875000e+00) (46, -1.64072327315807342529e-02) (47, 9.84016835689544677734e-01) (48, 2.78703594207763671875e+00) (49, 2.74347567558288574219e+00) (50, 2.81084108352661132812e+00) (51, 9.43106234073638916016e-01) (52, 1.90531522035598754883e-01) (53, 2.13202571868896484375e+00) (54, -7.99481153488159179688e-01) (55, -2.28465646505355834961e-01) (56, -8.37847232818603515625e-01) (57, -7.51504659652709960938e-01) (58, 1.14051222801208496094e+00) (59, -4.11307632923126220703e-01) (60, -1.89208254218101501465e-01) (61, -3.59217256307601928711e-01) (62, -6.13053552806377410889e-02) (63, -3.71879577636718750000e-01) (64, 3.78729343414306640625e-01) (65, -4.98956680297851562500e-01) (66, -3.88064682483673095703e-01) (67, -2.60302454233169555664e-01) (68, -7.64145135879516601562e-01) (69, 2.64647698402404785156e+00) (70, 1.38199537992477416992e-01) (71, 1.10186719894409179688e+00) (72, -8.43143016099929809570e-02) (73, -2.28184103965759277344e-01) (74, -1.47513851523399353027e-01) (75, -8.59810292720794677734e-01) (76, -3.65391105413436889648e-01) (77, -9.08399373292922973633e-02) (78, 2.09668254852294921875e+00) (79, 3.52920860052108764648e-01) (80, 2.20963048934936523438e+00) (81, -7.46302843093872070312e-01) (82, -2.65458635985851287842e-02) (83, -1.17213085293769836426e-01) (84, -3.38680684566497802734e-01) (85, 1.64848417043685913086e-01) (86, -1.57055482268333435059e-01) (87, 2.59032964706420898438e+00) (88, -1.89362213015556335449e-01) (89, -2.48853676021099090576e-02) (90, 2.64298176765441894531e+00) (91, -3.51207345724105834961e-01) (92, -1.12278759479522705078e-03) (93, -1.95223480463027954102e-01) (94, 1.05033683776855468750e+01) (95, 1.51973938941955566406e+00) (96, -1.49625882506370544434e-01) (97, -3.45318526029586791992e-01) (98, -1.00969746708869934082e-01) (99, -2.39231005311012268066e-01) (100, 2.61521995067596435547e-01) (101, -6.89969539642333984375e-01) (102, 2.15116763114929199219e+00) (103, -3.82225960493087768555e-01) (104, -7.35173821449279785156e-01) (105, -3.97573053836822509766e-01) (106, -3.68974775075912475586e-01) (107, -3.51185314357280731201e-02) (108, 1.37603473663330078125e+00) (109, -3.87974791228771209717e-02) (110, -8.11677455902099609375e-01) (111, 1.05438861846923828125e+01) (112, 1.51383423805236816406e+00) (113, 1.46071100234985351562e+00) (114, 1.04172677993774414062e+01) (115, -2.51337110996246337891e-01) (116, -3.66231650114059448242e-01) (117, -4.06211972236633300781e-01) (118, 3.96744281053543090820e-01) (119, -1.43460974097251892090e-01) (120, 1.04165172576904296875e+01) (121, 2.90740823745727539062e+00) (122, 1.43734169006347656250e+00) (123, 1.04059896469116210938e+01) (124, 1.05787143707275390625e+01) (125, -1.93764910101890563965e-01) (126, -1.63609497249126434326e-02) (127, -8.73301625251770019531e-01) (128, -1.63718685507774353027e-01) (129, -4.51558530330657958984e-01) (130, 2.24726939201354980469e+00) (131, -6.36020451784133911133e-02) (132, -1.49287208914756774902e-01) (133, -3.37351053953170776367e-01) (134, -7.34027862548828125000e-01) (135, 2.24995613098144531250e+00) (136, -7.03944683074951171875e-01) (137, 9.44230496883392333984e-01) (138, 1.05220890045166015625e+01) (139, 1.53950810432434082031e+00) (140, 1.05747394561767578125e+01) (141, 1.54320454597473144531e+00) (142, 1.49033451080322265625e+00) (143, 1.05301380157470703125e+01) (144, 1.04801054000854492188e+01) (145, -2.26872324943542480469e-01) (146, -1.21380642056465148926e-01) (147, 2.68781518936157226562e+00) (148, 2.59787678718566894531e+00) (149, 2.08406257629394531250e+00) (150, -3.96674387156963348389e-02) (151, -8.30105543136596679688e-01) (152, 8.01897525787353515625e-01) (153, 1.04228944778442382812e+01) (154, 3.02899032831192016602e-01) (155, -3.24701249599456787109e-01) (156, -1.71545967459678649902e-01) (157, -8.42941761016845703125e-01) (158, -8.82585167884826660156e-01) (159, 2.62994718551635742188e+00) (160, -5.05098044872283935547e-01) (161, 1.05812644958496093750e+01) (162, -6.94499731063842773438e-01) (0, -4.55228909850120544434e-02) (1, 1.11557826399803161621e-01) (2, -1.56573981046676635742e-01) (3, 1.04962558746337890625e+01) (4, -1.03957529067993164062e+01) (5, 1.04467639923095703125e+01) (6, 1.04305043816566467285e-01) (7, 3.08981180191040039062e-01) (8, -1.39783054590225219727e-01) (9, 1.41951233148574829102e-01) (10, 2.40880548954010009766e-01) (11, 2.44542255997657775879e-01) (12, 1.81763276457786560059e-01) (13, 2.79068022966384887695e-01) (14, 1.13756626844406127930e-01) (15, -1.69404578208923339844e+00) (16, 2.92923241853713989258e-01) (17, 4.04424071311950683594e-02) (18, 3.18564474582672119141e-01) (19, 3.30235898494720458984e-01) (20, 2.61434495449066162109e-01) (21, 3.95632028579711914062e-01) (22, 3.74834716320037841797e-01) (23, 2.52151012420654296875e-01) (24, 4.31758612394332885742e-02) (25, 4.66065764427185058594e-01) (26, 2.69490569829940795898e-01) (27, 1.04466285705566406250e+01) (28, 1.04736690521240234375e+01) (29, 1.04437179565429687500e+01) (30, 1.04195470809936523438e+01) (31, 1.04033126831054687500e+01) (32, 1.04775514602661132812e+01) (33, 1.05258560180664062500e+01) (34, 1.05065078735351562500e+01) (35, 1.04748582839965820312e+01) (36, 1.05795602798461914062e+01) (37, 1.05387325286865234375e+01) (38, 1.04532384872436523438e+01) (39, 1.04149436950683593750e+01) (40, 1.05557260513305664062e+01) (41, 1.05635185241699218750e+01) (42, 1.05874052047729492188e+01) (43, -4.99787598848342895508e-01) (44, 1.04299049377441406250e+01) (45, 5.67931890487670898438e-01) (46, 1.86487168073654174805e-01) (47, 3.29768478870391845703e-01) (48, 1.04784154891967773438e+01) (49, 1.04263582229614257812e+01) (50, 1.04277019500732421875e+01) (51, 4.48186063766479492188e+00) (52, -1.53273642063140869141e-01) (53, 5.34350395202636718750e-01) (54, 1.81610167026519775391e-01) (55, -1.42764675617218017578e+00) (56, 2.66793817281723022461e-01) (57, -1.98745116591453552246e-01) (58, 1.83698391914367675781e+00) (59, -1.62655615806579589844e+00) (60, 7.00476206839084625244e-03) (61, -4.08406525850296020508e-01) (62, -1.77307903766632080078e-01) (63, -1.51941013336181640625e+00) (64, -4.43103760480880737305e-01) (65, -3.98308515548706054688e+00) (66, 2.18427464365959167480e-01) (67, -4.89110141992568969727e-01) (68, 2.16776147484779357910e-01) (69, 3.31482976675033569336e-01) (70, -9.13651049137115478516e-01) (71, 3.14399212598800659180e-01) (72, -2.33240351080894470215e-01) (73, -4.72881585359573364258e-01) (74, 2.46147677302360534668e-01) (75, -1.96395143866539001465e-01) (76, -4.36860591173171997070e-01) (77, -2.14277774095535278320e-01) (78, 3.09084087610244750977e-01) (79, -2.70412278175354003906e+00) (80, 3.42150896787643432617e-01) (81, 1.61202892661094665527e-01) (82, -5.53755164146423339844e-02) (83, 1.75876542925834655762e-01) (84, 2.98599213361740112305e-01) (85, -4.26887065172195434570e-01) (86, -2.22641557455062866211e-01) (87, 8.92520606517791748047e-01) (88, -3.67351695895195007324e-02) (89, 8.85182768106460571289e-02) (90, 3.68634492158889770508e-01) (91, -6.92110478878021240234e-01) (92, 1.98111101984977722168e-01) (93, -1.05515317916870117188e+01) (94, 1.04119358062744140625e+01) (95, 1.05614795684814453125e+01) (96, -5.04208281636238098145e-02) (97, -4.34856325387954711914e-01) (98, 2.69389122724533081055e-01) (99, -1.04078130722045898438e+01) (100, -1.54033616185188293457e-01) (101, 1.25805288553237915039e-01) (102, 1.84648680686950683594e+00) (103, -4.15507346391677856445e-01) (104, 1.70923009514808654785e-01) (105, 2.79356271028518676758e-01) (106, -4.83758360147476196289e-01) (107, 2.52061694860458374023e-01) (108, 1.05083398818969726562e+01) (109, -9.20891612768173217773e-02) (110, 2.18555793166160583496e-01) (111, 1.05902433395385742188e+01) (112, 1.05596160888671875000e+01) (113, 1.04401378631591796875e+01) (114, 1.04940395355224609375e+01) (115, -1.05405864715576171875e+01) (116, -4.28302556276321411133e-01) (117, -1.10139441490173339844e+00) (118, -1.66609275341033935547e+00) (119, 1.54345646500587463379e-01) (120, 1.04438085556030273438e+01) (121, 1.04821186065673828125e+01) (122, 1.05060892105102539062e+01) (123, 1.05698394775390625000e+01) (124, 1.05236473083496093750e+01) (125, -1.30977153778076171875e-01) (126, 2.17279270291328430176e-01) (127, -3.92911076545715332031e-01) (128, 8.71290564537048339844e-02) (129, 3.55187982320785522461e-01) (130, 1.23831510543823242188e+00) (131, -1.52529656887054443359e-01) (132, 2.68312245607376098633e-01) (133, -1.26173257827758789062e-01) (134, 2.02852919697761535645e-01) (135, 6.15697681903839111328e-01) (136, 1.93392559885978698730e-01) (137, 1.91324806213378906250e+00) (138, 1.04511842727661132812e+01) (139, 1.04240083694458007812e+01) (140, 1.04355068206787109375e+01) (141, 1.05920162200927734375e+01) (142, 1.04211921691894531250e+01) (143, 1.04020624160766601562e+01) (144, 1.04390935897827148438e+01) (145, -3.25110256671905517578e-02) (146, 9.70088765025138854980e-02) (147, 4.58016365766525268555e-01) (148, 1.91730046272277832031e+00) (149, 1.94846034049987792969e+00) (150, 7.11342841386795043945e-02) (151, 9.18952226638793945312e-02) (152, 4.42574882507324218750e+00) (153, 1.05669345855712890625e+01) (154, -2.11349391937255859375e+00) (155, 1.44828826189041137695e-01) (156, 1.83504566550254821777e-01) (157, 2.08229526877403259277e-01) (158, -1.42778024077415466309e-01) (159, 5.11278569698333740234e-01) (160, 2.13686272501945495605e-01) (161, 1.05348110198974609375e+01) (162, 2.21189662814140319824e-01) (0, 2.41735205054283142090e-01) (1, 1.06617230921983718872e-02) (2, 2.41085514426231384277e-01) (3, -9.80642890930175781250e+00) (4, 4.44852066040039062500e+00) (5, -9.93149566650390625000e+00) (6, -1.36033624410629272461e-01) (7, -4.27214503288269042969e-02) (8, 2.42901816964149475098e-01) (9, -1.37077778577804565430e-01) (10, -1.45896654576063156128e-02) (11, -6.77756071090698242188e-02) (12, -1.23937577009201049805e-01) (13, -4.03569102287292480469e-01) (14, -6.29900582134723663330e-03) (15, 1.54464721679687500000e+00) (16, -4.40146923065185546875e-01) (17, -2.53664702177047729492e-01) (18, -2.55123913288116455078e-01) (19, -4.25975918769836425781e-01) (20, -4.46166574954986572266e-01) (21, -3.90189707279205322266e-01) (22, -9.22493077814579010010e-03) (23, -4.64832425117492675781e-01) (24, -6.77582174539566040039e-02) (25, -4.77792292833328247070e-01) (26, -4.46572840213775634766e-01) (27, -9.85776138305664062500e+00) (28, 1.04710111618041992188e+01) (29, -9.79900264739990234375e+00) (30, 1.04382238388061523438e+01) (31, 1.05402555465698242188e+01) (32, 1.05442609786987304688e+01) (33, 1.05068178176879882812e+01) (34, 1.04932861328125000000e+01) (35, 1.04506731033325195312e+01) (36, 1.05347814559936523438e+01) (37, 1.05044403076171875000e+01) (38, 1.05880336761474609375e+01) (39, -1.02929277420043945312e+01) (40, 1.05145511627197265625e+01) (41, -1.01445932388305664062e+01) (42, -9.86791515350341796875e+00) (43, 9.07699346542358398438e-01) (44, -9.90439033508300781250e+00) (45, -2.06448411941528320312e+00) (46, -2.13126912713050842285e-02) (47, -7.53483295440673828125e-01) (48, -9.79155349731445312500e+00) (49, -9.84024047851562500000e+00) (50, -9.77416801452636718750e+00) (51, -1.04060420989990234375e+01) (52, 1.07568848133087158203e+00) (53, -2.51140713691711425781e+00) (54, 6.50182813405990600586e-02) (55, 3.24943828582763671875e+00) (56, -3.08604001998901367188e-01) (57, 7.04136610031127929688e-01) (58, -1.05161838531494140625e+01) (59, 1.62996411323547363281e+00) (60, 6.09904408454895019531e-01) (61, 8.23859453201293945312e-01) (62, 3.20189177989959716797e-01) (63, 1.65500044822692871094e+00) (64, -5.71667313575744628906e-01) (65, 1.67738509178161621094e+00) (66, -1.15812972187995910645e-01) (67, 8.79338741302490234375e-01) (68, -6.27011060714721679688e-02) (69, -4.94863599538803100586e-01) (70, 2.14399743080139160156e+00) (71, -4.59299862384796142578e-01) (72, 1.00510346889495849609e+00) (73, 7.83015370368957519531e-01) (74, 3.56106579303741455078e-01) (75, 8.60173106193542480469e-01) (76, 8.15449714660644531250e-01) (77, 1.74111515283584594727e-01) (78, -3.33338797092437744141e-01) (79, 1.40691602230072021484e+00) (80, -3.44439506530761718750e-01) (81, -2.39106342196464538574e-01) (82, 6.91429138183593750000e-01) (83, -6.49343878030776977539e-02) (84, -3.32502007484436035156e-01) (85, 7.90732145309448242188e-01) (86, 5.00708997249603271484e-01) (87, -2.08351373672485351562e+00) (88, 3.00468325614929199219e-01) (89, -1.28801744431257247925e-02) (90, -7.27488160133361816406e-01) (91, 2.16749000549316406250e+00) (92, -9.08402949571609497070e-02) (93, 4.35407924652099609375e+00) (94, 1.04712800979614257812e+01) (95, -1.01800203323364257812e+01) (96, 1.02640628814697265625e+00) (97, 7.09430098533630371094e-01) (98, -7.75234848260879516602e-02) (99, 4.41167354583740234375e+00) (100, -9.02181416749954223633e-02) (101, -2.64128565788269042969e-01) (102, -4.40656375885009765625e+00) (103, 2.09363102912902832031e+00) (104, -6.67673163115978240967e-03) (105, -4.39013004302978515625e-01) (106, 6.95358991622924804688e-01) (107, -9.30466204881668090820e-02) (108, -1.02442808151245117188e+01) (109, 1.44021973013877868652e-01) (110, -1.15105789154767990112e-02) (111, 1.05746793746948242188e+01) (112, -6.48571681976318359375e+00) (113, -1.02679338455200195312e+01) (114, 1.04898262023925781250e+01) (115, 4.42943477630615234375e+00) (116, 4.97826427221298217773e-01) (117, 1.34810078144073486328e+00) (118, 1.16760575771331787109e+00) (119, -1.26066952943801879883e-01) (120, 1.05473546981811523438e+01) (121, -6.22195148468017578125e+00) (122, -1.01235466003417968750e+01) (123, 1.04365959167480468750e+01) (124, 1.04448528289794921875e+01) (125, 6.11082017421722412109e-01) (126, 3.41067373752593994141e-01) (127, 4.95479822158813476562e-01) (128, -8.99778679013252258301e-04) (129, -4.27037835121154785156e-01) (130, -2.45340967178344726562e+00) (131, 2.08644300699234008789e-01) (132, -1.67378168553113937378e-02) (133, 3.54471683502197265625e-01) (134, -9.02900844812393188477e-02) (135, -3.61422657966613769531e-01) (136, -1.38942420482635498047e-01) (137, -1.04307842254638671875e+01) (138, 1.04168453216552734375e+01) (139, -1.02031402587890625000e+01) (140, 1.05597600936889648438e+01) (141, -1.01127033233642578125e+01) (142, -6.52383422851562500000e+00) (143, 1.04814167022705078125e+01) (144, 1.04225425720214843750e+01) (145, 3.19902718067169189453e-01) (146, 2.84941364079713821411e-02) (147, -5.21566689014434814453e-01) (148, -1.92952108383178710938e+00) (149, -4.40569448471069335938e+00) (150, -1.73001587390899658203e-02) (151, -5.83904385566711425781e-02) (152, -1.04768247604370117188e+01) (153, 1.05841102600097656250e+01) (154, 1.49060809612274169922e+00) (155, -1.88310369849205017090e-01) (156, -1.29298776388168334961e-01) (157, -2.22534164786338806152e-01) (158, 1.01324069499969482422e+00) (159, -8.13741862773895263672e-01) (160, -2.49785229563713073730e-01) (161, 1.05043945312500000000e+01) (162, -1.46857142448425292969e-01) (0, -4.51456904411315917969e-02) (1, 9.45969521999359130859e-02) (2, -9.04116630554199218750e-02) (3, 4.75290107727050781250e+00) (4, -4.50605392456054687500e+00) (5, 4.73316144943237304688e+00) (6, 1.16556316614151000977e-01) (7, 3.76560017466545104980e-02) (8, -1.61435127258300781250e-01) (9, 1.65376335382461547852e-01) (10, 1.21194198727607727051e-01) (11, 1.41632452607154846191e-01) (12, 1.51940569281578063965e-01) (13, 1.44417658448219299316e-01) (14, 1.03770732879638671875e-01) (15, -3.17768633365631103516e-01) (16, 2.16990143060684204102e-01) (17, 2.75068014860153198242e-01) (18, 2.21028015017509460449e-01) (19, 2.33506709337234497070e-01) (20, 1.52882754802703857422e-01) (21, 1.45323202013969421387e-01) (22, 1.93091303110122680664e-01) (23, 2.26085722446441650391e-01) (24, 1.96106612682342529297e-01) (25, 3.54371696710586547852e-01) (26, 1.69872909784317016602e-01) (27, 4.80248975753784179688e+00) (28, 1.04863367080688476562e+01) (29, 4.84081029891967773438e+00) (30, 1.05809068679809570312e+01) (31, 1.04546194076538085938e+01) (32, 1.04793167114257812500e+01) (33, 1.05039234161376953125e+01) (34, 1.05596523284912109375e+01) (35, 1.04137706756591796875e+01) (36, 1.05892171859741210938e+01) (37, 1.04884710311889648438e+01) (38, 1.04501447677612304688e+01) (39, 4.69601869583129882812e+00) (40, 1.04096460342407226562e+01) (41, 4.82486438751220703125e+00) (42, 4.83636903762817382812e+00) (43, -4.61844801902770996094e-02) (44, 4.72508096694946289062e+00) (45, 3.70567262172698974609e-01) (46, 2.44501829147338867188e-01) (47, 2.94203013181686401367e-01) (48, 4.74484825134277343750e+00) (49, 4.83700752258300781250e+00) (50, 4.78200101852416992188e+00) (51, 1.95394015312194824219e+00) (52, -4.22094136476516723633e-01) (53, 3.54700148105621337891e-01) (54, 7.01091066002845764160e-02) (55, -1.21712118387222290039e-01) (56, 2.21205115318298339844e-01) (57, 2.46600493788719177246e-01) (58, 2.74109423160552978516e-01) (59, -7.93814063072204589844e-01) (60, 1.44659101963043212891e-01) (61, 1.47659927606582641602e-01) (62, -8.15885663032531738281e-02) (63, -3.80770236253738403320e-01) (64, 2.18734726309776306152e-01) (65, -7.65661776065826416016e-01) (66, 1.46510168910026550293e-01) (67, -7.22239166498184204102e-02) (68, 1.81581765413284301758e-01) (69, 2.70349323749542236328e-01) (70, -2.40732673555612564087e-02) (71, 9.86949503421783447266e-02) (72, 8.57073813676834106445e-02) (73, 9.13317352533340454102e-02) (74, 1.65412276983261108398e-01) (75, 1.62920266389846801758e-01) (76, -1.31039291620254516602e-01) (77, -1.62330925464630126953e-01) (78, 7.37242460250854492188e-01) (79, -8.35292339324951171875e-01) (80, 3.06271255016326904297e-01) (81, 5.54240196943283081055e-02) (82, 3.17846715450286865234e-01) (83, 1.37424960732460021973e-01) (84, 2.48120054602622985840e-01) (85, -1.46026700735092163086e-01) (86, 1.77334755659103393555e-01) (87, 2.69188135862350463867e-01) (88, -2.03101653605699539185e-02) (89, 1.98954746127128601074e-01) (90, 3.39468747377395629883e-01) (91, 1.01777747273445129395e-01) (92, 1.94876685738563537598e-01) (93, -4.51857519149780273438e+00) (94, 1.05862779617309570312e+01) (95, 4.74824810028076171875e+00) (96, 8.10370407998561859131e-03) (97, -1.23816087841987609863e-01) (98, 4.60460223257541656494e-03) (99, -4.62629890441894531250e+00) (100, -2.84291803836822509766e-03) (101, 1.55697688460350036621e-01) (102, 7.19888687133789062500e-01) (103, -9.91177111864089965820e-02) (104, 9.52914059162139892578e-02) (105, 4.65146452188491821289e-02) (106, 1.65133122354745864868e-02) (107, 1.39418497681617736816e-01) (108, 4.70127964019775390625e+00) (109, -9.68218967318534851074e-03) (110, 8.05254429578781127930e-02) (111, 1.04867086410522460938e+01) (112, 4.67324972152709960938e+00) (113, 4.67388010025024414062e+00) (114, 1.04228515625000000000e+01) (115, -4.47231864929199218750e+00) (116, -4.62847977876663208008e-01) (117, -6.08801186084747314453e-01) (118, -8.55891227722167968750e-01) (119, 4.95523214340209960938e-02) (120, 1.04101209640502929688e+01) (121, 4.72596216201782226562e+00) (122, 4.84617805480957031250e+00) (123, 1.04037151336669921875e+01) (124, 1.03930864334106445312e+01) (125, -2.19017285853624343872e-02) (126, 9.87724959850311279297e-02) (127, -7.95858651399612426758e-02) (128, 3.63712534308433532715e-02) (129, 1.58557713031768798828e-01) (130, 7.29851186275482177734e-01) (131, 1.44504960626363754272e-02) (132, 7.00543522834777832031e-02) (133, -1.54187560081481933594e-01) (134, 1.04043573141098022461e-01) (135, 4.28814768791198730469e-01) (136, 6.28373324871063232422e-02) (137, 8.49241375923156738281e-01) (138, 1.04939765930175781250e+01) (139, 4.76283454895019531250e+00) (140, 1.05182924270629882812e+01) (141, 4.82802820205688476562e+00) (142, 4.65648365020751953125e+00) (143, 1.05436735153198242188e+01) (144, 1.03992319107055664062e+01) (145, -1.42515406012535095215e-01) (146, 1.06541007757186889648e-01) (147, 3.27356666326522827148e-01) (148, 3.23828876018524169922e-01) (149, 7.02053666114807128906e-01) (150, 1.10875114798545837402e-01) (151, 7.61379152536392211914e-02) (152, 2.03317666053771972656e+00) (153, 1.05009622573852539062e+01) (154, -8.90889048576354980469e-01) (155, 1.29126057028770446777e-01) (156, 1.00711852312088012695e-01) (157, 1.97827145457267761230e-01) (158, 1.07326544821262359619e-01) (159, 4.14096534252166748047e-01) (160, 1.93522915244102478027e-01) (161, 1.05329790115356445312e+01) (162, 1.76057592034339904785e-01) (0, 4.50698100030422210693e-03) (1, 3.29761654138565063477e-01) (2, -1.85346335172653198242e-01) (3, 1.05355138778686523438e+01) (4, -1.05323448181152343750e+01) (5, 1.04245882034301757812e+01) (6, 1.15451857447624206543e-01) (7, 3.06282997131347656250e-01) (8, 2.28841081261634826660e-01) (9, 1.48488625884056091309e-01) (10, 3.14898371696472167969e-01) (11, 1.79454669356346130371e-01) (12, 1.07426866888999938965e-01) (13, 2.35385179519653320312e-01) (14, 9.82576757669448852539e-02) (15, -4.73023831844329833984e-01) (16, 2.93180137872695922852e-01) (17, 2.04560294747352600098e-01) (18, 1.60422340035438537598e-01) (19, 4.29146856069564819336e-01) (20, 3.30560654401779174805e-01) (21, 3.15557926893234252930e-01) (22, 2.47902363538742065430e-01) (23, 2.09842205047607421875e-01) (24, 9.63588729500770568848e-02) (25, 3.11201751232147216797e-01) (26, 3.15159708261489868164e-01) (27, 1.05490722656250000000e+01) (28, 1.05413713455200195312e+01) (29, 1.04411010742187500000e+01) (30, 1.05238475799560546875e+01) (31, 1.05210447311401367188e+01) (32, 1.04402618408203125000e+01) (33, 1.04013843536376953125e+01) (34, 1.04634981155395507812e+01) (35, 1.05009775161743164062e+01) (36, 1.04329118728637695312e+01) (37, 1.05068693161010742188e+01) (38, 1.04766597747802734375e+01) (39, 1.05896730422973632812e+01) (40, 1.05304012298583984375e+01) (41, 1.04609565734863281250e+01) (42, 1.04970464706420898438e+01) (43, -3.99449467658996582031e-01) (44, 1.04836606979370117188e+01) (45, 1.88404202461242675781e+00) (46, 1.70018032193183898926e-01) (47, 3.83781313896179199219e-01) (48, 1.05562047958374023438e+01) (49, 1.04517469406127929688e+01) (50, 1.05195150375366210938e+01) (51, 4.42313289642333984375e+00) (52, -7.95903243124485015869e-03) (53, 1.92119812965393066406e+00) (54, 2.37990066409111022949e-01) (55, -1.28202593326568603516e+00) (56, 2.11766839027404785156e-01) (57, 1.83059483766555786133e-01) (58, 1.88504791259765625000e+00) (59, -1.54883813858032226562e+00) (60, 3.67373377084732055664e-02) (61, -1.13209098577499389648e-01) (62, 1.53105244040489196777e-01) (63, -1.61468315124511718750e+00) (64, 5.53260892629623413086e-02) (65, -1.55041527748107910156e+00) (66, 4.02150422334671020508e-01) (67, -6.50328248739242553711e-02) (68, 1.00804902613162994385e-01) (69, 2.85750091075897216797e-01) (70, -8.57677400112152099609e-01) (71, 2.09650903940200805664e-01) (72, 5.56376129388809204102e-02) (73, -1.64433479309082031250e-01) (74, 2.41737470030784606934e-01) (75, -5.37612661719322204590e-02) (76, -3.77102822065353393555e-01) (77, 6.32578060030937194824e-02) (78, 2.68558770418167114258e-01) (79, -2.76657557487487792969e+00) (80, 3.60204696655273437500e-01) (81, 3.41803431510925292969e-01) (82, 2.34442893415689468384e-02) (83, 1.25700488686561584473e-01) (84, 3.75877887010574340820e-01) (85, -4.49103742837905883789e-01) (86, 1.06501117348670959473e-01) (87, 9.18704330921173095703e-01) (88, -1.14319324493408203125e-01) (89, 2.37670734524726867676e-01) (90, 5.91766119003295898438e-01) (91, -4.65652793645858764648e-01) (92, 9.96279716491699218750e-02) (93, -1.04521799087524414062e+01) (94, 1.05810956954956054688e+01) (95, 1.04852447509765625000e+01) (96, 1.64423510432243347168e-01) (97, 7.98178277909755706787e-03) (98, 7.43992105126380920410e-02) (99, -1.04354448318481445312e+01) (100, 1.92461729049682617188e-01) (101, 2.39665776491165161133e-01) (102, 1.91410732269287109375e+00) (103, -7.20048129558563232422e-01) (104, 1.97521820664405822754e-01) (105, 4.03677821159362792969e-01) (106, -4.72318321466445922852e-01) (107, 1.38418361544609069824e-01) (108, 1.05506715774536132812e+01) (109, -1.21174365282058715820e-01) (110, 2.42459908127784729004e-01) (111, 1.04370832443237304688e+01) (112, 1.05818176269531250000e+01) (113, 1.05428619384765625000e+01) (114, 1.04907035827636718750e+01) (115, -1.05022163391113281250e+01) (116, -5.47795414924621582031e-01) (117, -1.00928533077239990234e+00) (118, -1.60153973102569580078e+00) (119, 1.57268688082695007324e-01) (120, 1.04794263839721679688e+01) (121, 1.04505739212036132812e+01) (122, 1.05734443664550781250e+01) (123, 1.05013303756713867188e+01) (124, 1.05914535522460937500e+01) (125, -6.74655474722385406494e-03) (126, 7.25362747907638549805e-02) (127, -4.73312854766845703125e-01) (128, 2.23648622632026672363e-01) (129, 2.15455144643783569336e-01) (130, 1.13028216361999511719e+00) (131, 8.55093002319335937500e-02) (132, 1.89563050866127014160e-01) (133, -1.66585654020309448242e-01) (134, 9.96230840682983398438e-02) (135, 5.63547313213348388672e-01) (136, 2.16190531849861145020e-01) (137, 1.82145833969116210938e+00) (138, 1.04853906631469726562e+01) (139, 1.04891376495361328125e+01) (140, 1.05146322250366210938e+01) (141, 1.04501266479492187500e+01) (142, 1.05331611633300781250e+01) (143, 1.05033893585205078125e+01) (144, 1.03999280929565429688e+01) (145, -1.23877421021461486816e-01) (146, 3.67055907845497131348e-02) (147, 2.99357742071151733398e-01) (148, 1.91804313659667968750e+00) (149, 1.95271039009094238281e+00) (150, 2.64914214611053466797e-01) (151, 1.81132704019546508789e-01) (152, 4.39845371246337890625e+00) (153, 1.04785547256469726562e+01) (154, -2.14564180374145507812e+00) (155, 2.67420321702957153320e-01) (156, 1.84515371918678283691e-01) (157, 2.31338545680046081543e-01) (158, -4.18573558330535888672e-01) (159, 3.95932167768478393555e-01) (160, 3.33610862493515014648e-01) (161, 1.05868873596191406250e+01) (162, 1.49511918425559997559e-01) (0, 2.46362194418907165527e-01) (1, -1.77673861384391784668e-01) (2, 2.88118034601211547852e-01) (3, -9.85395240783691406250e+00) (4, 4.48298263549804687500e+00) (5, -9.85107040405273437500e+00) (6, 5.06491810083389282227e-02) (7, -1.43130123615264892578e-01) (8, 2.02452898025512695312e-01) (9, -2.68540561199188232422e-01) (10, -3.02898697555065155029e-03) (11, -1.83153301477432250977e-01) (12, -1.18310049176216125488e-01) (13, -4.83374774456024169922e-01) (14, -5.72397001087665557861e-03) (15, 1.27193593978881835938e+00) (16, -3.19209933280944824219e-01) (17, -1.74022853374481201172e-01) (18, -1.63890466094017028809e-01) (19, -4.68678236007690429688e-01) (20, -2.68636643886566162109e-01) (21, -3.12519788742065429688e-01) (22, -6.03312999010086059570e-02) (23, -4.13897335529327392578e-01) (24, 1.87269002199172973633e-01) (25, -5.29533624649047851562e-01) (26, -2.68421649932861328125e-01) (27, -9.82212066650390625000e+00) (28, 1.05026464462280273438e+01) (29, -9.76877498626708984375e+00) (30, 1.05493097305297851562e+01) (31, 1.05765171051025390625e+01) (32, 1.05861530303955078125e+01) (33, 1.05901193618774414062e+01) (34, 1.04820241928100585938e+01) (35, 1.05270280838012695312e+01) (36, 1.04985094070434570312e+01) (37, 1.04798622131347656250e+01) (38, 1.05639801025390625000e+01) (39, -1.01696491241455078125e+01) (40, 1.05347661972045898438e+01) (41, -1.01570873260498046875e+01) (42, -9.88375759124755859375e+00) (43, 7.33541250228881835938e-01) (44, -9.79668903350830078125e+00) (45, -2.07975196838378906250e+00) (46, 5.14982156455516815186e-02) (47, -7.24845290184020996094e-01) (48, -9.80199718475341796875e+00) (49, -9.87619590759277343750e+00) (50, -9.78823184967041015625e+00) (51, -1.04389543533325195312e+01) (52, 1.04258584976196289062e+00) (53, -2.40032172203063964844e+00) (54, -1.18661358952522277832e-01) (55, 3.16732263565063476562e+00) (56, -2.16366380453109741211e-01) (57, -3.11975419521331787109e-01) (58, -4.45170688629150390625e+00) (59, 1.52094268798828125000e+00) (60, 4.24697190523147583008e-01) (61, 8.88470530509948730469e-01) (62, 5.51469802856445312500e-01) (63, 1.69040012359619140625e+00) (64, -4.23754632472991943359e-01) (65, 1.59336400032043457031e+00) (66, -1.94229841232299804688e-01) (67, 9.70539391040802001953e-01) (68, 2.86988783627748489380e-02) (69, -4.07163143157958984375e-01) (70, 3.92267799377441406250e+00) (71, -3.47685456275939941406e-01) (72, 8.80310595035552978516e-01) (73, 8.02091479301452636719e-01) (74, -2.61170137673616409302e-02) (75, 8.43081295490264892578e-01) (76, 8.19257855415344238281e-01) (77, 2.59195655584335327148e-01) (78, -6.44147515296936035156e-01) (79, 2.47324800491333007812e+00) (80, -6.92482948303222656250e-01) (81, -3.83458733558654785156e-01) (82, 6.51881337165832519531e-01) (83, -1.23725503683090209961e-01) (84, -4.23934817314147949219e-01) (85, 7.36312747001647949219e-01) (86, 2.01527118682861328125e-01) (87, -1.91560268402099609375e+00) (88, 4.08625096082687377930e-01) (89, -2.61841341853141784668e-04) (90, -6.68598294258117675781e-01) (91, 2.06985759735107421875e+00) (92, -1.36108677834272384644e-02) (93, 4.54020977020263671875e+00) (94, 1.04090480804443359375e+01) (95, -1.01548786163330078125e+01) (96, 9.28515434265136718750e-01) (97, 7.58952021598815917969e-01) (98, -1.07847318053245544434e-01) (99, 4.40518283843994140625e+00) (100, -1.52995631098747253418e-01) (101, -2.92426913976669311523e-01) (102, -4.30144023895263671875e+00) (103, 2.10606074333190917969e+00) (104, -1.58989708870649337769e-02) (105, -3.96432876586914062500e-01) (106, 6.90696835517883300781e-01) (107, -9.84606891870498657227e-02) (108, -1.01914329528808593750e+01) (109, 1.50906011462211608887e-01) (110, -2.35593896359205245972e-02) (111, 1.04018383026123046875e+01) (112, -6.48135089874267578125e+00) (113, -1.01195306777954101562e+01) (114, 1.04581947326660156250e+01) (115, 4.34236764907836914062e+00) (116, 1.18103063106536865234e+00) (117, 1.17556214332580566406e+00) (118, 1.24845004081726074219e+00) (119, -1.23222798109054565430e-01) (120, 1.05874338150024414062e+01) (121, -6.08221721649169921875e+00) (122, -1.02183351516723632812e+01) (123, 1.05539054870605468750e+01) (124, 1.05707168579101562500e+01) (125, 6.54061257839202880859e-01) (126, 2.83518612384796142578e-01) (127, 5.23453652858734130859e-01) (128, -1.08398601412773132324e-01) (129, -3.47804009914398193359e-01) (130, -2.43192672729492187500e+00) (131, 2.38367944955825805664e-01) (132, -1.65802404284477233887e-01) (133, 2.81078457832336425781e-01) (134, -2.24392816424369812012e-01) (135, -6.88115477561950683594e-01) (136, -1.69755563139915466309e-01) (137, -1.03932924270629882812e+01) (138, 1.04531440734863281250e+01) (139, -1.01811065673828125000e+01) (140, 1.04041357040405273438e+01) (141, -1.02884521484375000000e+01) (142, -6.47464084625244140625e+00) (143, 1.05301570892333984375e+01) (144, 1.03951969146728515625e+01) (145, 3.37463974952697753906e-01) (146, 9.78685259819030761719e-01) (147, -8.44419598579406738281e-01) (148, -2.08449864387512207031e+00) (149, -4.36317586898803710938e+00) (150, -1.24074384570121765137e-01) (151, -1.73288151621818542480e-01) (152, -1.04945716857910156250e+01) (153, 1.05588035583496093750e+01) (154, 1.49301946163177490234e+00) (155, -2.80193060636520385742e-01) (156, -1.11625924706459045410e-01) (157, -2.44777932763099670410e-01) (158, 1.14933180809020996094e+00) (159, -9.03567790985107421875e-01) (160, -2.25688859820365905762e-01) (161, 1.04619684219360351562e+01) (162, -6.95943646132946014404e-03) (0, -1.31851524114608764648e-01) (1, 3.08096438646316528320e-01) (2, -1.57814502716064453125e-01) (3, 1.04148378372192382812e+01) (4, -1.04052381515502929688e+01) (5, 1.04978952407836914062e+01) (6, 1.53943046927452087402e-01) (7, 2.42376625537872314453e-01) (8, 1.51443138718605041504e-01) (9, 1.70550361275672912598e-01) (10, 1.75108104944229125977e-01) (11, 1.25089004635810852051e-01) (12, 1.78330436348915100098e-01) (13, 2.55054235458374023438e-01) (14, 2.62445956468582153320e-01) (15, -4.41284120082855224609e-01) (16, 2.67474085092544555664e-01) (17, 2.80876517295837402344e-01) (18, 1.61587670445442199707e-01) (19, 2.74268120527267456055e-01) (20, 2.14823007583618164062e-01) (21, 3.74564439058303833008e-01) (22, 2.36264050006866455078e-01) (23, 2.90968120098114013672e-01) (24, 7.15154483914375305176e-02) (25, 3.81685376167297363281e-01) (26, 2.31957554817199707031e-01) (27, 1.05362892150878906250e+01) (28, 1.05299882888793945312e+01) (29, 1.04868888854980468750e+01) (30, 1.05094118118286132812e+01) (31, 1.05733032226562500000e+01) 